<?xml version="1.0"?>
<opencv_storage>
<circlesclassifier>
  <stageType>BOOST</stageType>
  <featureType>LBP</featureType>
  <height>64</height>
  <width>64</width>
  <stageParams>
    <boostType>GAB</boostType>
    <minHitRate>9.9900001287460327e-01</minHitRate>
    <maxFalseAlarm>5.0000000000000000e-01</maxFalseAlarm>
    <weightTrimRate>9.4999999999999996e-01</weightTrimRate>
    <maxDepth>1</maxDepth>
    <maxWeakCount>100</maxWeakCount></stageParams>
  <featureParams>
    <maxCatCount>256</maxCatCount>
    <featSize>1</featSize></featureParams>
  <stageNum>15</stageNum>
  <stages>
    <!-- stage 0 -->
    <_>
      <maxWeakCount>7</maxWeakCount>
      <stageThreshold>-2.5685232877731323e-01</stageThreshold>
      <weakClassifiers>
        <_>
          <internalNodes>
            0 -1 7 -2111303168 549212873 -1746190364 -2106213516
            87893776 561265701 -2047533513 336024635</internalNodes>
          <leafValues>
            -2.7855152729898691e-03 8.0660760402679443e-01</leafValues></_>
        <_>
          <internalNodes>
            0 -1 37 -508629490 669494924 745412776 -1454240512
            -1073815209 553123826 1867982737 725553343</internalNodes>
          <leafValues>
            -2.6597467064857483e-01 6.7538458108901978e-01</leafValues></_>
        <_>
          <internalNodes>
            0 -1 31 -1004359605 283142154 1105668625 289216544
            -1586456175 -2072625821 -2053981741 -888856356</internalNodes>
          <leafValues>
            -2.8352838754653931e-01 7.7687817811965942e-01</leafValues></_>
        <_>
          <internalNodes>
            0 -1 64 -1323248684 -1878423000 778538277 -1726669918
            -1567355264 -1428931837 72156682 -895612232</internalNodes>
          <leafValues>
            -3.0920797586441040e-01 7.4765300750732422e-01</leafValues></_>
        <_>
          <internalNodes>
            0 -1 38 -1244462376 -963331864 504639397 1370331754 3262624
            -1760554682 -2139729418 -747960119</internalNodes>
          <leafValues>
            -3.7873509526252747e-01 7.1067523956298828e-01</leafValues></_>
        <_>
          <internalNodes>
            0 -1 36 615408855 -320016779 1181510833 1374268134
            -2038515804 -1905019013 -413869235 -1432332075</internalNodes>
          <leafValues>
            -3.5424417257308960e-01 7.4305760860443115e-01</leafValues></_>
        <_>
          <internalNodes>
            0 -1 20 -1801774057 711688091 -1077936327 -1000337537
            -1234670809 1155288958 124026290 -1358541408</internalNodes>
          <leafValues>
            -4.1312885284423828e-01 6.2979328632354736e-01</leafValues></_></weakClassifiers></_>
    <!-- stage 1 -->
    <_>
      <maxWeakCount>7</maxWeakCount>
      <stageThreshold>-6.7377758026123047e-01</stageThreshold>
      <weakClassifiers>
        <_>
          <internalNodes>
            0 -1 67 -2146395520 966137336 168104448 -547093862 34888322
            67169776 18389432 -1861286336</internalNodes>
          <leafValues>
            2.3964497447013855e-01 9.0692639350891113e-01</leafValues></_>
        <_>
          <internalNodes>
            0 -1 22 -1607883264 271462530 241379348 291318805
            -1873633662 303830096 -2008022581 -1794698020</internalNodes>
          <leafValues>
            -2.2283712029457092e-01 8.2051819562911987e-01</leafValues></_>
        <_>
          <internalNodes>
            0 -1 26 -1744723328 415861376 1172308692 1496646692
            -2025551231 -1525529308 -1946112567 -1285061396</internalNodes>
          <leafValues>
            -3.0094453692436218e-01 8.7631732225418091e-01</leafValues></_>
        <_>
          <internalNodes>
            0 -1 57 -2004176126 473565832 1212260985 1426915562
            909883016 632555072 -2079011176 -1483009024</internalNodes>
          <leafValues>
            -3.4458750486373901e-01 8.2887488603591919e-01</leafValues></_>
        <_>
          <internalNodes>
            0 -1 93 -2141020160 1923149492 1862170640 -1010292852
            -2074821616 272486768 1712634025 -1550869366</internalNodes>
          <leafValues>
            -3.9309227466583252e-01 7.6774460077285767e-01</leafValues></_>
        <_>
          <internalNodes>
            0 -1 32 -1821658462 -1855604680 196731401 -682090461
            -1842038896 1849319 1446220958 -1848962872</internalNodes>
          <leafValues>
            -3.7592825293540955e-01 8.1485587358474731e-01</leafValues></_>
        <_>
          <internalNodes>
            0 -1 94 -1830034672 573496610 804545719 -2114577568
            -2055881440 82730870 103605614 -1819562626</internalNodes>
          <leafValues>
            -4.3686974048614502e-01 7.6808434724807739e-01</leafValues></_></weakClassifiers></_>
    <!-- stage 2 -->
    <_>
      <maxWeakCount>8</maxWeakCount>
      <stageThreshold>-6.9197756052017212e-01</stageThreshold>
      <weakClassifiers>
        <_>
          <internalNodes>
            0 -1 30 -232095230 1079781510 190448424 1431186446
            -750513944 38686054 355678088 -1861615462</internalNodes>
          <leafValues>
            2.8508123755455017e-01 8.7432283163070679e-01</leafValues></_>
        <_>
          <internalNodes>
            0 -1 29 -1295916878 -750181754 373303377 360775856
            -2127552864 -951758824 16926362 -1148206885</internalNodes>
          <leafValues>
            -1.1333624273538589e-01 8.7098699808120728e-01</leafValues></_>
        <_>
          <internalNodes>
            0 -1 35 -668544366 -1590026016 1759279505 -614391255
            594575496 338960444 39478502 -1462861605</internalNodes>
          <leafValues>
            -2.4008522927761078e-01 8.1422495841979980e-01</leafValues></_>
        <_>
          <internalNodes>
            0 -1 89 -83113896 -637126984 -328194791 350733325
            -2123578488 509770006 1342620 -619646334</internalNodes>
          <leafValues>
            -3.2472321391105652e-01 7.4210786819458008e-01</leafValues></_>
        <_>
          <internalNodes>
            0 -1 8 -1958310898 -1838404792 1305241641 89211298
            1954256297 -96418180 356521178 -754725861</internalNodes>
          <leafValues>
            -3.4141558408737183e-01 7.3906105756759644e-01</leafValues></_>
        <_>
          <internalNodes>
            0 -1 26 -616423254 141085332 250120927 -1858857673
            1464309928 -1986902604 616889731 -1995487490</internalNodes>
          <leafValues>
            -3.7282887101173401e-01 6.7191696166992188e-01</leafValues></_>
        <_>
          <internalNodes>
            0 -1 11 -493649765 137838304 545172809 364891868 222601861
            -2014748806 1425046 -740615990</internalNodes>
          <leafValues>
            -3.0518159270286560e-01 8.0655288696289062e-01</leafValues></_>
        <_>
          <internalNodes>
            0 -1 33 -194527174 -465096970 769957941 54880791 -179437326
            513863209 -2139874036 -880081318</internalNodes>
          <leafValues>
            -3.4631910920143127e-01 7.2981661558151245e-01</leafValues></_></weakClassifiers></_>
    <!-- stage 3 -->
    <_>
      <maxWeakCount>9</maxWeakCount>
      <stageThreshold>-1.6775958240032196e-01</stageThreshold>
      <weakClassifiers>
        <_>
          <internalNodes>
            0 -1 1 674770466 719662716 752631533 61598177 1474508630
            191949681 437519960 286526980</internalNodes>
          <leafValues>
            -2.0134227350354195e-02 7.7265745401382446e-01</leafValues></_>
        <_>
          <internalNodes>
            0 -1 75 79746218 -1773336480 1069923882 1731964645 133342411
            292845556 780045599 1394207883</internalNodes>
          <leafValues>
            -1.8177528679370880e-01 7.6458871364593506e-01</leafValues></_>
        <_>
          <internalNodes>
            0 -1 79 -1714827352 1145615632 1848159274 1493544860
            603352194 1987493307 -1393244680 872616984</internalNodes>
          <leafValues>
            -3.9625316858291626e-01 5.5396980047225952e-01</leafValues></_>
        <_>
          <internalNodes>
            0 -1 24 386991091 -352371975 996474662 1454958446
            -1535401417 545047888 -1224726579 -2044690296</internalNodes>
          <leafValues>
            -3.9442437887191772e-01 5.9530645608901978e-01</leafValues></_>
        <_>
          <internalNodes>
            0 -1 42 -1410682996 -604934276 251539068 837400112
            1979037451 -2078229148 925118750 226033941</internalNodes>
          <leafValues>
            -4.0980181097984314e-01 6.2335294485092163e-01</leafValues></_>
        <_>
          <internalNodes>
            0 -1 60 1816173517 828665405 515272165 1571466781
            -1963737655 -1791709326 398433177 493029028</internalNodes>
          <leafValues>
            -3.8084182143211365e-01 6.8234580755233765e-01</leafValues></_>
        <_>
          <internalNodes>
            0 -1 103 1507323843 1302898474 -407491100 -990616848
            -676614327 -539625417 319768368 -34082288</internalNodes>
          <leafValues>
            -3.0568525195121765e-01 8.1512349843978882e-01</leafValues></_>
        <_>
          <internalNodes>
            0 -1 73 -489639583 1128152012 1575917554 1557425696
            -197692076 1190416246 2013197082 -805293163</internalNodes>
          <leafValues>
            -3.7065386772155762e-01 6.7174273729324341e-01</leafValues></_>
        <_>
          <internalNodes>
            0 -1 95 252878048 1249816241 -16811428 2106911909 1810951261
            1417150302 -1468717708 -1274213656</internalNodes>
          <leafValues>
            -4.8435917496681213e-01 5.6806409358978271e-01</leafValues></_></weakClassifiers></_>
    <!-- stage 4 -->
    <_>
      <maxWeakCount>7</maxWeakCount>
      <stageThreshold>-7.8776007890701294e-01</stageThreshold>
      <weakClassifiers>
        <_>
          <internalNodes>
            0 -1 91 144703488 -1395776746 517942756 212471016 914889264
            1912387759 878849316 34617904</internalNodes>
          <leafValues>
            -4.6308726072311401e-01 7.3673325777053833e-01</leafValues></_>
        <_>
          <internalNodes>
            0 -1 83 339280169 586583917 803695215 -1529271251 875311441
            -1128956004 -269142255 -2144333308</internalNodes>
          <leafValues>
            -3.3309125900268555e-01 6.7924249172210693e-01</leafValues></_>
        <_>
          <internalNodes>
            0 -1 55 86032518 834183972 251651808 1977548144 103667674
            -1226868743 75272329 459920541</internalNodes>
          <leafValues>
            -3.5226261615753174e-01 7.6107394695281982e-01</leafValues></_>
        <_>
          <internalNodes>
            0 -1 39 709045763 -487620676 -2038776444 -932421771
            393152000 119996373 -180519148 -281718888</internalNodes>
          <leafValues>
            -4.4467285275459290e-01 6.5183162689208984e-01</leafValues></_>
        <_>
          <internalNodes>
            0 -1 70 328472333 -882368220 -1269153650 -759169005
            -780102370 -1061019613 -360626140 -1400890612</internalNodes>
          <leafValues>
            -5.0492537021636963e-01 6.1838060617446899e-01</leafValues></_>
        <_>
          <internalNodes>
            0 -1 88 181774795 -1396703943 -83923090 1655427046
            -1669375215 98432628 -323078876 -1596098568</internalNodes>
          <leafValues>
            -5.2655065059661865e-01 6.0569030046463013e-01</leafValues></_>
        <_>
          <internalNodes>
            0 -1 52 674240261 1723808295 -1090588809 1681442086
            1850798693 -1006708867 717711030 -2115486704</internalNodes>
          <leafValues>
            -4.9523153901100159e-01 6.3577926158905029e-01</leafValues></_></weakClassifiers></_>
    <!-- stage 5 -->
    <_>
      <maxWeakCount>6</maxWeakCount>
      <stageThreshold>-2.7126005291938782e-01</stageThreshold>
      <weakClassifiers>
        <_>
          <internalNodes>
            0 -1 59 1319992 207103420 -1368543312 753335653 401997686
            -1212219915 -1624496204 785399136</internalNodes>
          <leafValues>
            -2.4463519454002380e-01 7.7322602272033691e-01</leafValues></_>
        <_>
          <internalNodes>
            0 -1 69 413413181 570261247 612839279 1829529486 2138181175
            -478167819 -1481228671 -1363931868</internalNodes>
          <leafValues>
            -3.1233292818069458e-01 7.6971495151519775e-01</leafValues></_>
        <_>
          <internalNodes>
            0 -1 43 15752605 1083741281 -2253327 349478639 -1083065091
            1835695999 -54577353 -1458293788</internalNodes>
          <leafValues>
            -4.4197180867195129e-01 6.5621894598007202e-01</leafValues></_>
        <_>
          <internalNodes>
            0 -1 86 228667333 -1342417684 783099782 -999362820
            2131621106 1987345891 -44215024 -1429176112</internalNodes>
          <leafValues>
            -4.3680998682975769e-01 6.9659763574600220e-01</leafValues></_>
        <_>
          <internalNodes>
            0 -1 9 712246229 315371519 -1378046388 -1476624403
            -1346013379 -2101493892 -1090732107 -273668844</internalNodes>
          <leafValues>
            -4.7625371813774109e-01 6.9568979740142822e-01</leafValues></_>
        <_>
          <internalNodes>
            0 -1 19 339216149 -975257675 -1098925319 -1220567751
            -230826207 -277946373 -1342927153 -377218948</internalNodes>
          <leafValues>
            -4.5916554331779480e-01 7.3583424091339111e-01</leafValues></_></weakClassifiers></_>
    <!-- stage 6 -->
    <_>
      <maxWeakCount>6</maxWeakCount>
      <stageThreshold>-5.0636764615774155e-02</stageThreshold>
      <weakClassifiers>
        <_>
          <internalNodes>
            0 -1 48 773327160 780975980 -421529860 -2074595612 -76253853
            -310708619 -691194764 4198196</internalNodes>
          <leafValues>
            -2.3555555939674377e-01 7.6581817865371704e-01</leafValues></_>
        <_>
          <internalNodes>
            0 -1 0 100279375 687177455 2121781160 -857112948 1743645989
            1459548006 1853421684 -426400076</internalNodes>
          <leafValues>
            -3.6981701850891113e-01 6.5527051687240601e-01</leafValues></_>
        <_>
          <internalNodes>
            0 -1 10 651693597 242903025 -1708658707 -321913092
            -1107926414 605093600 -44291501 -1564103579</internalNodes>
          <leafValues>
            -3.5909548401832581e-01 7.1532219648361206e-01</leafValues></_>
        <_>
          <internalNodes>
            0 -1 62 223251583 718500705 -17926097 -1431650608 310171492
            -596861475 -1136757150 -1411887868</internalNodes>
          <leafValues>
            -3.8179972767829895e-01 7.1668547391891479e-01</leafValues></_>
        <_>
          <internalNodes>
            0 -1 61 25447549 -892048397 720836436 146312804 871427335
            -37770257 -28904667 -49011119</internalNodes>
          <leafValues>
            -3.8427260518074036e-01 7.6280200481414795e-01</leafValues></_>
        <_>
          <internalNodes>
            0 -1 101 1070928437 400534223 2063478237 -1896677680
            -1510566540 1780529845 -1484835072 -392427904</internalNodes>
          <leafValues>
            -3.4655761718750000e-01 8.0291748046875000e-01</leafValues></_></weakClassifiers></_>
    <!-- stage 7 -->
    <_>
      <maxWeakCount>6</maxWeakCount>
      <stageThreshold>-3.5544806718826294e-01</stageThreshold>
      <weakClassifiers>
        <_>
          <internalNodes>
            0 -1 49 512 705183732 -1073872972 -1896321428 -123978924
            1602224127 1543321412 617620592</internalNodes>
          <leafValues>
            -4.8750001192092896e-01 7.4861109256744385e-01</leafValues></_>
        <_>
          <internalNodes>
            0 -1 6 162925413 -1996656643 -34755176 -314642583 1853758421
            -1495319554 -360875459 -1262736936</internalNodes>
          <leafValues>
            -3.0431610345840454e-01 7.7091461420059204e-01</leafValues></_>
        <_>
          <internalNodes>
            0 -1 17 606222509 1204580063 1958608350 573750525
            -1108189481 -1138983170 -273863 -1180677484</internalNodes>
          <leafValues>
            -3.7503615021705627e-01 7.6845186948776245e-01</leafValues></_>
        <_>
          <internalNodes>
            0 -1 54 589572999 801566031 -1208094868 -169105494
            1964981055 1476329436 766303713 -1326698792</internalNodes>
          <leafValues>
            -4.5989423990249634e-01 6.8469536304473877e-01</leafValues></_>
        <_>
          <internalNodes>
            0 -1 34 68948195 234813173 -1230145629 -982995364
            -1172965393 -436338818 -480480813 -273139056</internalNodes>
          <leafValues>
            -4.4685176014900208e-01 7.3064935207366943e-01</leafValues></_>
        <_>
          <internalNodes>
            0 -1 71 78185877 804044671 -1954550155 -404852993 2142453623
            1052078037 -1382686903 -2019279500</internalNodes>
          <leafValues>
            -5.0167012214660645e-01 6.9835561513900757e-01</leafValues></_></weakClassifiers></_>
    <!-- stage 8 -->
    <_>
      <maxWeakCount>8</maxWeakCount>
      <stageThreshold>-2.9887670278549194e-01</stageThreshold>
      <weakClassifiers>
        <_>
          <internalNodes>
            0 -1 13 649120800 577006958 -1361007104 1713393312
            1985787716 1163919219 559171396 96993237</internalNodes>
          <leafValues>
            -4.1463413834571838e-01 7.4373257160186768e-01</leafValues></_>
        <_>
          <internalNodes>
            0 -1 87 68485397 579309231 1144863561 -1493474837 888438309
            -1871874218 1357534294 -1011335455</internalNodes>
          <leafValues>
            -2.7478995919227600e-01 7.5627744197845459e-01</leafValues></_>
        <_>
          <internalNodes>
            0 -1 100 782251869 -1909964827 -50401305 -1398889879
            1442195278 -1517816100 2038185793 -1901056928</internalNodes>
          <leafValues>
            -4.3418926000595093e-01 6.4325553178787231e-01</leafValues></_>
        <_>
          <internalNodes>
            0 -1 44 174153735 -1971498244 848199407 -1494221118 3878997
            -2014073163 -153848315 -1512524387</internalNodes>
          <leafValues>
            -3.8640114665031433e-01 7.5289475917816162e-01</leafValues></_>
        <_>
          <internalNodes>
            0 -1 63 1942759759 717648687 989824832 248736280 1172793636
            2021650417 1894070064 -208797727</internalNodes>
          <leafValues>
            -4.8401331901550293e-01 6.3566929101943970e-01</leafValues></_>
        <_>
          <internalNodes>
            0 -1 51 -1320380904 1895932354 -788430424 -2063556224
            566814775 -1879047160 -1961885612 185149608</internalNodes>
          <leafValues>
            -5.7644045352935791e-01 5.7316732406616211e-01</leafValues></_>
        <_>
          <internalNodes>
            0 -1 81 708973917 -599978547 -1745929302 -1225850950
            2124234576 -1774911491 -1208717455 -1104411519</internalNodes>
          <leafValues>
            -5.0546699762344360e-01 6.6818547248840332e-01</leafValues></_>
        <_>
          <internalNodes>
            0 -1 16 62915181 111410918 -8491664 -386853703 -7192988
            1157463859 -1745529547 -1779067494</internalNodes>
          <leafValues>
            -5.3205817937850952e-01 6.6396790742874146e-01</leafValues></_></weakClassifiers></_>
    <!-- stage 9 -->
    <_>
      <maxWeakCount>6</maxWeakCount>
      <stageThreshold>-3.7045538425445557e-01</stageThreshold>
      <weakClassifiers>
        <_>
          <internalNodes>
            0 -1 99 43003168 720255484 385761160 -1366774596 1476163441
            493927934 1072709476 548417092</internalNodes>
          <leafValues>
            -4.6012270450592041e-01 7.4808627367019653e-01</leafValues></_>
        <_>
          <internalNodes>
            0 -1 58 568070481 -1300234259 988684264 -1979760951
            -1552532167 -721576066 -142864541 -1448597132</internalNodes>
          <leafValues>
            -3.1008952856063843e-01 7.4017471075057983e-01</leafValues></_>
        <_>
          <internalNodes>
            0 -1 23 160444825 921148407 919419761 -1120129811 -508544143
            1456831930 -1124515996 -1113561872</internalNodes>
          <leafValues>
            -4.1551047563552856e-01 7.1960860490798950e-01</leafValues></_>
        <_>
          <internalNodes>
            0 -1 53 555747257 -1372753934 -100916434 -1083409798
            -279283551 1744092501 -1773446121 -1345053696</internalNodes>
          <leafValues>
            -4.6231892704963684e-01 6.6792684793472290e-01</leafValues></_>
        <_>
          <internalNodes>
            0 -1 66 387779363 1155956726 -34045984 -1812169612
            1039548085 1994137598 1022398321 -743699036</internalNodes>
          <leafValues>
            -4.7201007604598999e-01 6.5928423404693604e-01</leafValues></_>
        <_>
          <internalNodes>
            0 -1 82 673461513 -1426137106 1870114770 -458230018
            -541765038 -1420328969 2138599284 -1191440860</internalNodes>
          <leafValues>
            -5.0887686014175415e-01 6.2256759405136108e-01</leafValues></_></weakClassifiers></_>
    <!-- stage 10 -->
    <_>
      <maxWeakCount>7</maxWeakCount>
      <stageThreshold>6.3332669436931610e-02</stageThreshold>
      <weakClassifiers>
        <_>
          <internalNodes>
            0 -1 56 79963488 784219485 -1073832035 804302846 913192373
            134086653 2147233205 548671780</internalNodes>
          <leafValues>
            -4.3478259444236755e-01 7.6271188259124756e-01</leafValues></_>
        <_>
          <internalNodes>
            0 -1 102 924855957 792631186 1337898990 -423191809
            1608531765 -150994947 -33796317 -1359467816</internalNodes>
          <leafValues>
            -3.7799325585365295e-01 7.1006864309310913e-01</leafValues></_>
        <_>
          <internalNodes>
            0 -1 77 184552717 581625389 -843333815 -991633417 771028017
            -965624491 -1074413648 -1126650304</internalNodes>
          <leafValues>
            -3.7503397464752197e-01 8.0903774499893188e-01</leafValues></_>
        <_>
          <internalNodes>
            0 -1 3 184954181 -1441810439 -1409420545 -2017480834
            -1093212557 -982156162 1442562007 -1343213060</internalNodes>
          <leafValues>
            -3.9989727735519409e-01 7.4873113632202148e-01</leafValues></_>
        <_>
          <internalNodes>
            0 -1 50 356002052 1643189522 10421827 -524106448 74981836
            -849033206 730947713 -1418712856</internalNodes>
          <leafValues>
            -5.8705711364746094e-01 5.5428779125213623e-01</leafValues></_>
        <_>
          <internalNodes>
            0 -1 74 214440284 759677517 568586 -944188672 101780099
            101666338 -524215285 -1359735436</internalNodes>
          <leafValues>
            -5.9827214479446411e-01 5.9992742538452148e-01</leafValues></_>
        <_>
          <internalNodes>
            0 -1 40 576072673 33575187 -2129575159 -536668160 1620566808
            664305744 914919696 -1826048288</internalNodes>
          <leafValues>
            -5.9053230285644531e-01 6.3108122348785400e-01</leafValues></_></weakClassifiers></_>
    <!-- stage 11 -->
    <_>
      <maxWeakCount>8</maxWeakCount>
      <stageThreshold>-1.9748149812221527e-01</stageThreshold>
      <weakClassifiers>
        <_>
          <internalNodes>
            0 -1 28 754934595 44592877 -16778388 -453247258 -1677888170
            343866367 916780901 1363325172</internalNodes>
          <leafValues>
            -6.6282421350479126e-02 8.1644052267074585e-01</leafValues></_>
        <_>
          <internalNodes>
            0 -1 78 62078277 -2110148994 1790934983 1015831278
            -1837298091 601300990 -740888751 -425134763</internalNodes>
          <leafValues>
            -2.9233828186988831e-01 7.4240505695343018e-01</leafValues></_>
        <_>
          <internalNodes>
            0 -1 18 -1353774867 575192614 -85005400 -2105098253
            310328131 1743183670 -1217558943 -1283328028</internalNodes>
          <leafValues>
            -4.5026355981826782e-01 6.2407839298248291e-01</leafValues></_>
        <_>
          <internalNodes>
            0 -1 41 258948110 720108174 1811639072 1612580781
            -1644300699 -681066529 -419510348 -141697796</internalNodes>
          <leafValues>
            -5.2189648151397705e-01 5.8475965261459351e-01</leafValues></_>
        <_>
          <internalNodes>
            0 -1 92 233777503 1223524103 -1661307797 -1954485036
            400384576 -1931085827 -1359182239 -2033803268</internalNodes>
          <leafValues>
            -4.6460723876953125e-01 7.1793454885482788e-01</leafValues></_>
        <_>
          <internalNodes>
            0 -1 47 53231453 702707659 -294133512 -2045972481 892688964
            -1296339852 -178960635 -1359598668</internalNodes>
          <leafValues>
            -4.2153713107109070e-01 7.2164851427078247e-01</leafValues></_>
        <_>
          <internalNodes>
            0 -1 85 -1660765929 -1571442614 1397083528 -356367360
            -1463710192 84951296 -1876388988 386076705</internalNodes>
          <leafValues>
            -5.4703438282012939e-01 6.0911828279495239e-01</leafValues></_>
        <_>
          <internalNodes>
            0 -1 84 79703349 -86802841 1861287799 -1493215825 -893659276
            -722600126 -1359200472 -290409411</internalNodes>
          <leafValues>
            -4.5764443278312683e-01 7.6425433158874512e-01</leafValues></_></weakClassifiers></_>
    <!-- stage 12 -->
    <_>
      <maxWeakCount>8</maxWeakCount>
      <stageThreshold>-3.6374130845069885e-01</stageThreshold>
      <weakClassifiers>
        <_>
          <internalNodes>
            0 -1 98 134745088 209222396 2134755492 714483648 402219876
            371904503 376442976 6292992</internalNodes>
          <leafValues>
            -5.3125000000000000e-01 7.2554349899291992e-01</leafValues></_>
        <_>
          <internalNodes>
            0 -1 72 109062017 -999674304 637530003 2027880165 750589714
            -1384677615 -1099215788 -1909060331</internalNodes>
          <leafValues>
            -3.5269075632095337e-01 6.4352083206176758e-01</leafValues></_>
        <_>
          <internalNodes>
            0 -1 21 -2060550839 1622953333 938196644 -863485999
            -446418121 -994248847 -186884554 -1426575888</internalNodes>
          <leafValues>
            -4.0146300196647644e-01 6.2218552827835083e-01</leafValues></_>
        <_>
          <internalNodes>
            0 -1 80 -1213681308 2001937557 2104225712 -35205972
            2089924390 280613364 1422003414 50398568</internalNodes>
          <leafValues>
            -4.9307397007942200e-01 5.3332585096359253e-01</leafValues></_>
        <_>
          <internalNodes>
            0 -1 25 589765483 -2147344299 -1610170153 -939097852
            -1409152218 -889159008 -74147823 -1464229085</internalNodes>
          <leafValues>
            -4.6910586953163147e-01 6.2476384639739990e-01</leafValues></_>
        <_>
          <internalNodes>
            0 -1 90 383529269 -1917325639 -4276240 -1899858138 351674934
            1694367588 1594996212 -1954474387</internalNodes>
          <leafValues>
            -4.6661645174026489e-01 6.1302101612091064e-01</leafValues></_>
        <_>
          <internalNodes>
            0 -1 27 -308219024 -794678539 -269176863 -1310151230
            -587923500 -2083160097 -1398997167 555557070</internalNodes>
          <leafValues>
            -4.6875572204589844e-01 6.2326997518539429e-01</leafValues></_>
        <_>
          <internalNodes>
            0 -1 15 -1711771203 -1427358906 1473735591 768229332
            -279058683 190135294 -1208683165 -2138824680</internalNodes>
          <leafValues>
            -4.5743915438652039e-01 6.6472429037094116e-01</leafValues></_></weakClassifiers></_>
    <!-- stage 13 -->
    <_>
      <maxWeakCount>6</maxWeakCount>
      <stageThreshold>-3.1175357103347778e-01</stageThreshold>
      <weakClassifiers>
        <_>
          <internalNodes>
            0 -1 104 690236720 763281397 -1108656135 -1895915525
            -1074322068 -139265 500448885 -1410062672</internalNodes>
          <leafValues>
            -7.3033705353736877e-02 8.2475882768630981e-01</leafValues></_>
        <_>
          <internalNodes>
            0 -1 2 203693365 -457740297 1710192367 -1074122772
            -688099457 1473642087 -168151468 -236704172</internalNodes>
          <leafValues>
            -2.9237800836563110e-01 7.3479700088500977e-01</leafValues></_>
        <_>
          <internalNodes>
            0 -1 5 422124909 247398116 2010120020 1795075580 -2030114921
            394262133 1050943191 -1381234272</internalNodes>
          <leafValues>
            -4.4763842225074768e-01 6.5862429141998291e-01</leafValues></_>
        <_>
          <internalNodes>
            0 -1 4 548801365 1761169074 -1745031586 -838242501
            -407218828 1340571640 -555845844 -368821800</internalNodes>
          <leafValues>
            -4.5882758498191833e-01 6.9480955600738525e-01</leafValues></_>
        <_>
          <internalNodes>
            0 -1 97 122963589 1207394046 1308278575 -521957392
            1937709725 -738626089 -461619308 -1162213228</internalNodes>
          <leafValues>
            -4.7049298882484436e-01 6.7079848051071167e-01</leafValues></_>
        <_>
          <internalNodes>
            0 -1 46 234425131 -1766215945 1073114221 -1091686740
            267892055 2013263855 117323622 -1176496916</internalNodes>
          <leafValues>
            -4.9435043334960938e-01 6.5539479255676270e-01</leafValues></_></weakClassifiers></_>
    <!-- stage 14 -->
    <_>
      <maxWeakCount>8</maxWeakCount>
      <stageThreshold>-2.0984192192554474e-01</stageThreshold>
      <weakClassifiers>
        <_>
          <internalNodes>
            0 -1 76 206578688 -1910947907 1065335757 783333756
            -1914855596 1406492599 901673841 81803284</internalNodes>
          <leafValues>
            -3.2291665673255920e-01 7.5426137447357178e-01</leafValues></_>
        <_>
          <internalNodes>
            0 -1 14 633681261 34282873 -1359085594 -1394299780
            1568470279 -192956739 -1342357648 -1263502096</internalNodes>
          <leafValues>
            -3.3300855755805969e-01 7.0659720897674561e-01</leafValues></_>
        <_>
          <internalNodes>
            0 -1 96 907347717 901098425 -1129005086 -22401220
            -1089311257 -1124466952 -1988199156 -196072432</internalNodes>
          <leafValues>
            -4.0611243247985840e-01 6.8389087915420532e-01</leafValues></_>
        <_>
          <internalNodes>
            0 -1 105 986980157 -1393099265 1073643324 -573047810
            1446917502 -432685569 -50530599 -235659236</internalNodes>
          <leafValues>
            -4.5522522926330566e-01 6.3363420963287354e-01</leafValues></_>
        <_>
          <internalNodes>
            0 -1 68 1746404353 -622235911 -8490325 -17934422 -277980357
            394100591 -1220620444 -1665398620</internalNodes>
          <leafValues>
            -5.1209664344787598e-01 6.1937111616134644e-01</leafValues></_>
        <_>
          <internalNodes>
            0 -1 65 22884193 -1753363716 -1480315582 -1677935563
            954177400 484719604 -1897551915 -152031672</internalNodes>
          <leafValues>
            -4.1640579700469971e-01 7.6226401329040527e-01</leafValues></_>
        <_>
          <internalNodes>
            0 -1 12 134965807 -2030191059 2105716668 1859436542
            796386897 -854626435 -1211843132 -19128908</internalNodes>
          <leafValues>
            -4.1395902633666992e-01 7.4016970396041870e-01</leafValues></_>
        <_>
          <internalNodes>
            0 -1 45 24919568 -780140513 268509185 -1850146540 269680681
            -2145720181 1518372262 580124816</internalNodes>
          <leafValues>
            -5.9836918115615845e-01 5.4546517133712769e-01</leafValues></_></weakClassifiers></_></stages>
  <features>
    <_>
      <rect>
        0 2 5 1</rect></_>
    <_>
      <rect>
        0 2 14 20</rect></_>
    <_>
      <rect>
        0 26 2 6</rect></_>
    <_>
      <rect>
        1 7 1 5</rect></_>
    <_>
      <rect>
        1 52 1 4</rect></_>
    <_>
      <rect>
        2 5 1 5</rect></_>
    <_>
      <rect>
        2 13 1 4</rect></_>
    <_>
      <rect>
        2 25 20 10</rect></_>
    <_>
      <rect>
        2 30 1 1</rect></_>
    <_>
      <rect>
        2 44 1 4</rect></_>
    <_>
      <rect>
        3 6 1 2</rect></_>
    <_>
      <rect>
        3 24 1 1</rect></_>
    <_>
      <rect>
        4 1 1 2</rect></_>
    <_>
      <rect>
        4 47 8 1</rect></_>
    <_>
      <rect>
        4 49 2 3</rect></_>
    <_>
      <rect>
        4 56 1 2</rect></_>
    <_>
      <rect>
        5 2 3 1</rect></_>
    <_>
      <rect>
        5 34 1 4</rect></_>
    <_>
      <rect>
        6 7 5 1</rect></_>
    <_>
      <rect>
        7 4 1 4</rect></_>
    <_>
      <rect>
        7 4 2 2</rect></_>
    <_>
      <rect>
        7 55 2 3</rect></_>
    <_>
      <rect>
        8 40 1 1</rect></_>
    <_>
      <rect>
        8 55 1 3</rect></_>
    <_>
      <rect>
        9 57 1 2</rect></_>
    <_>
      <rect>
        11 3 4 2</rect></_>
    <_>
      <rect>
        11 41 1 1</rect></_>
    <_>
      <rect>
        12 6 9 10</rect></_>
    <_>
      <rect>
        12 29 9 1</rect></_>
    <_>
      <rect>
        13 16 1 1</rect></_>
    <_>
      <rect>
        14 2 1 1</rect></_>
    <_>
      <rect>
        15 18 1 1</rect></_>
    <_>
      <rect>
        16 14 1 1</rect></_>
    <_>
      <rect>
        17 37 1 1</rect></_>
    <_>
      <rect>
        17 55 1 3</rect></_>
    <_>
      <rect>
        18 9 1 1</rect></_>
    <_>
      <rect>
        23 13 3 1</rect></_>
    <_>
      <rect>
        23 23 12 7</rect></_>
    <_>
      <rect>
        24 10 1 1</rect></_>
    <_>
      <rect>
        24 24 3 1</rect></_>
    <_>
      <rect>
        24 28 2 1</rect></_>
    <_>
      <rect>
        24 33 6 1</rect></_>
    <_>
      <rect>
        24 48 12 5</rect></_>
    <_>
      <rect>
        26 22 1 6</rect></_>
    <_>
      <rect>
        28 54 2 1</rect></_>
    <_>
      <rect>
        29 5 3 4</rect></_>
    <_>
      <rect>
        29 22 1 5</rect></_>
    <_>
      <rect>
        29 33 1 2</rect></_>
    <_>
      <rect>
        30 25 1 5</rect></_>
    <_>
      <rect>
        30 40 1 6</rect></_>
    <_>
      <rect>
        31 8 1 4</rect></_>
    <_>
      <rect>
        31 46 5 4</rect></_>
    <_>
      <rect>
        31 53 1 2</rect></_>
    <_>
      <rect>
        32 1 1 3</rect></_>
    <_>
      <rect>
        32 21 1 5</rect></_>
    <_>
      <rect>
        32 38 10 5</rect></_>
    <_>
      <rect>
        33 3 1 10</rect></_>
    <_>
      <rect>
        33 19 1 1</rect></_>
    <_>
      <rect>
        33 24 1 4</rect></_>
    <_>
      <rect>
        34 16 1 6</rect></_>
    <_>
      <rect>
        34 43 5 5</rect></_>
    <_>
      <rect>
        34 56 1 1</rect></_>
    <_>
      <rect>
        35 25 4 1</rect></_>
    <_>
      <rect>
        36 25 4 1</rect></_>
    <_>
      <rect>
        38 12 2 1</rect></_>
    <_>
      <rect>
        38 45 2 2</rect></_>
    <_>
      <rect>
        38 54 1 3</rect></_>
    <_>
      <rect>
        39 10 1 1</rect></_>
    <_>
      <rect>
        39 28 2 4</rect></_>
    <_>
      <rect>
        39 29 1 3</rect></_>
    <_>
      <rect>
        40 32 1 3</rect></_>
    <_>
      <rect>
        41 22 1 5</rect></_>
    <_>
      <rect>
        42 1 4 3</rect></_>
    <_>
      <rect>
        42 14 1 1</rect></_>
    <_>
      <rect>
        42 46 1 5</rect></_>
    <_>
      <rect>
        43 18 7 13</rect></_>
    <_>
      <rect>
        43 19 1 9</rect></_>
    <_>
      <rect>
        43 48 1 2</rect></_>
    <_>
      <rect>
        44 1 6 1</rect></_>
    <_>
      <rect>
        45 12 5 7</rect></_>
    <_>
      <rect>
        45 27 6 6</rect></_>
    <_>
      <rect>
        46 30 1 3</rect></_>
    <_>
      <rect>
        47 0 1 3</rect></_>
    <_>
      <rect>
        47 7 1 2</rect></_>
    <_>
      <rect>
        47 30 2 2</rect></_>
    <_>
      <rect>
        47 30 5 3</rect></_>
    <_>
      <rect>
        49 55 1 3</rect></_>
    <_>
      <rect>
        52 1 2 1</rect></_>
    <_>
      <rect>
        52 23 3 1</rect></_>
    <_>
      <rect>
        52 31 1 1</rect></_>
    <_>
      <rect>
        53 9 3 2</rect></_>
    <_>
      <rect>
        53 16 1 3</rect></_>
    <_>
      <rect>
        55 3 3 1</rect></_>
    <_>
      <rect>
        55 34 1 1</rect></_>
    <_>
      <rect>
        55 36 1 1</rect></_>
    <_>
      <rect>
        56 21 2 2</rect></_>
    <_>
      <rect>
        58 16 2 3</rect></_>
    <_>
      <rect>
        58 22 1 3</rect></_>
    <_>
      <rect>
        58 37 2 3</rect></_>
    <_>
      <rect>
        58 41 1 7</rect></_>
    <_>
      <rect>
        58 46 1 3</rect></_>
    <_>
      <rect>
        58 59 2 1</rect></_>
    <_>
      <rect>
        59 3 1 6</rect></_>
    <_>
      <rect>
        60 41 1 1</rect></_>
    <_>
      <rect>
        61 2 1 14</rect></_>
    <_>
      <rect>
        61 18 1 7</rect></_></features></circlesclassifier>
</opencv_storage>
