<?xml version="1.0"?>
<opencv_storage>
<heartclassifier>
  <stageType>BOOST</stageType>
  <featureType>LBP</featureType>
  <height>64</height>
  <width>64</width>
  <stageParams>
    <boostType>GAB</boostType>
    <minHitRate>9.9900001287460327e-01</minHitRate>
    <maxFalseAlarm>5.0000000000000000e-01</maxFalseAlarm>
    <weightTrimRate>9.4999999999999996e-01</weightTrimRate>
    <maxDepth>1</maxDepth>
    <maxWeakCount>100</maxWeakCount></stageParams>
  <featureParams>
    <maxCatCount>256</maxCatCount>
    <featSize>1</featSize></featureParams>
  <stageNum>15</stageNum>
  <stages>
    <!-- stage 0 -->
    <_>
      <maxWeakCount>9</maxWeakCount>
      <stageThreshold>-3.4801867604255676e-01</stageThreshold>
      <weakClassifiers>
        <_>
          <internalNodes>
            0 -1 4 -1564709338 586940413 -1073807419 1732109547
            662138641 24444855 -1611389405 11484311</internalNodes>
          <leafValues>
            -4.5454544015228748e-03 7.9210525751113892e-01</leafValues></_>
        <_>
          <internalNodes>
            0 -1 74 643835709 -2039710279 1878845047 8437094 -30017694
            -731021315 1031765366 -873672324</internalNodes>
          <leafValues>
            -3.2390883564949036e-01 5.7932037115097046e-01</leafValues></_>
        <_>
          <internalNodes>
            0 -1 50 -1397371166 1488250535 889081639 -1644627352
            -1375956148 1425995741 -864541627 -118749784</internalNodes>
          <leafValues>
            -4.0809208154678345e-01 5.7117062807083130e-01</leafValues></_>
        <_>
          <internalNodes>
            0 -1 48 137936923 1746931196 -557872235 -573494532
            -1210522150 -369426497 -882081834 -644316247</internalNodes>
          <leafValues>
            -2.7713400125503540e-01 8.1647360324859619e-01</leafValues></_>
        <_>
          <internalNodes>
            0 -1 49 506076651 245423852 770473447 1038450681 645201913
            666402295 -1217008093 -1098201899</internalNodes>
          <leafValues>
            -3.8489091396331787e-01 6.2860405445098877e-01</leafValues></_>
        <_>
          <internalNodes>
            0 -1 36 -1490272444 1156484909 -285266013 435838575
            -1485209669 909918045 -1207960221 1706543015</internalNodes>
          <leafValues>
            -4.0955698490142822e-01 6.2191867828369141e-01</leafValues></_>
        <_>
          <internalNodes>
            0 -1 51 -2095792749 249757245 1044345975 -243470721
            565999578 -106170370 444546942 -1324745648</internalNodes>
          <leafValues>
            -3.7110710144042969e-01 7.3956263065338135e-01</leafValues></_>
        <_>
          <internalNodes>
            0 -1 68 -2134510960 -754450432 -1879009278 352632897
            159975819 -2146557824 688729 679055596</internalNodes>
          <leafValues>
            -4.8983624577522278e-01 6.0515183210372925e-01</leafValues></_>
        <_>
          <internalNodes>
            0 -1 99 373226867 318558198 1811933151 1769226174 -538182256
            -67338795 2054121339 -361589188</internalNodes>
          <leafValues>
            -3.9232197403907776e-01 6.9954681396484375e-01</leafValues></_></weakClassifiers></_>
    <!-- stage 1 -->
    <_>
      <maxWeakCount>8</maxWeakCount>
      <stageThreshold>-6.5272790193557739e-01</stageThreshold>
      <weakClassifiers>
        <_>
          <internalNodes>
            0 -1 61 -1398798460 325873406 -1090588954 -1006858260
            1627230904 1455325044 870177160 542128744</internalNodes>
          <leafValues>
            -1.7449665069580078e-01 7.2283816337585449e-01</leafValues></_>
        <_>
          <internalNodes>
            0 -1 55 -1733823344 -1332253594 -483875152 1362456181
            -1788167699 107886437 55813580 -900463940</internalNodes>
          <leafValues>
            -2.3369869589805603e-01 8.0228394269943237e-01</leafValues></_>
        <_>
          <internalNodes>
            0 -1 20 233586384 1344601706 -831520962 1504421434
            -1503795263 70317872 1870622602 1264613212</internalNodes>
          <leafValues>
            -3.5128587484359741e-01 6.8210732936859131e-01</leafValues></_>
        <_>
          <internalNodes>
            0 -1 29 800820992 1617874543 536839898 -1610799317
            -1242069640 1601691636 937699217 -1638599640</internalNodes>
          <leafValues>
            -4.6199753880500793e-01 6.1292690038681030e-01</leafValues></_>
        <_>
          <internalNodes>
            0 -1 69 -986059646 1349256998 250572675 458059318 -29690715
            7149293 821221256 -1248393843</internalNodes>
          <leafValues>
            -3.4083741903305054e-01 7.7038663625717163e-01</leafValues></_>
        <_>
          <internalNodes>
            0 -1 45 531452360 1451163322 2046750675 -172050504
            -143149120 -1351320194 -805881905 136855450</internalNodes>
          <leafValues>
            -3.7884590029716492e-01 7.0397573709487915e-01</leafValues></_>
        <_>
          <internalNodes>
            0 -1 24 -1804367644 456027928 2139053870 -751583640
            661977059 553121758 -707414569 -2133620957</internalNodes>
          <leafValues>
            -3.1701973080635071e-01 8.1241893768310547e-01</leafValues></_>
        <_>
          <internalNodes>
            0 -1 43 1051698327 820784878 -963201140 2003238862
            -612960370 745949036 1425464024 -1619130646</internalNodes>
          <leafValues>
            -3.2527405023574829e-01 7.7373123168945312e-01</leafValues></_></weakClassifiers></_>
    <!-- stage 2 -->
    <_>
      <maxWeakCount>10</maxWeakCount>
      <stageThreshold>-4.4360485672950745e-01</stageThreshold>
      <weakClassifiers>
        <_>
          <internalNodes>
            0 -1 41 1215695472 284699374 2130603505 708547130 -1269136
            -1191903502 938863224 -264703350</internalNodes>
          <leafValues>
            2.8436018154025078e-02 7.5578403472900391e-01</leafValues></_>
        <_>
          <internalNodes>
            0 -1 58 -161484654 1932820403 1985777269 1365454374
            1714686890 1307869161 1568179384 -836458597</internalNodes>
          <leafValues>
            -1.7163677513599396e-01 7.9880464076995850e-01</leafValues></_>
        <_>
          <internalNodes>
            0 -1 39 -113406814 -710951352 1593227443 1403918014
            924628251 -67133848 -321500420 -1056189350</internalNodes>
          <leafValues>
            -2.2766014933586121e-01 7.6895457506179810e-01</leafValues></_>
        <_>
          <internalNodes>
            0 -1 75 1704593239 -155390595 -1073774601 -2047398362
            788336463 -159745036 -69931770 -1081047578</internalNodes>
          <leafValues>
            -3.8090127706527710e-01 5.8105927705764771e-01</leafValues></_>
        <_>
          <internalNodes>
            0 -1 22 2114009616 451571577 -1090553102 490056317
            1726113692 -1761640531 1987942338 -1053255130</internalNodes>
          <leafValues>
            -4.0290960669517517e-01 6.0275775194168091e-01</leafValues></_>
        <_>
          <internalNodes>
            0 -1 59 -1212962028 -555041346 -822375529 -1152582100
            -1350730102 -1594458114 1828445158 -1023893714</internalNodes>
          <leafValues>
            -4.2953306436538696e-01 5.8866566419601440e-01</leafValues></_>
        <_>
          <internalNodes>
            0 -1 14 -1650249129 1810407084 -285278865 -1343427920
            -336193677 -1216585729 -1611190521 -687696454</internalNodes>
          <leafValues>
            -4.1578802466392517e-01 5.8732450008392334e-01</leafValues></_>
        <_>
          <internalNodes>
            0 -1 35 -710323946 -738296146 1055685305 -684792210
            2019854572 1029209981 1165816786 -2133904154</internalNodes>
          <leafValues>
            -3.3577626943588257e-01 7.4177354574203491e-01</leafValues></_>
        <_>
          <internalNodes>
            0 -1 52 -2143843186 -1117729810 1855876848 592017075
            -444678779 41707356 905956651 -572923862</internalNodes>
          <leafValues>
            -4.1841122508049011e-01 6.3729006052017212e-01</leafValues></_>
        <_>
          <internalNodes>
            0 -1 5 1851703258 1874851823 -86026 -890408983 2138406260
            -1485013131 2139029358 -178133044</internalNodes>
          <leafValues>
            -4.1649979352951050e-01 6.4325773715972900e-01</leafValues></_></weakClassifiers></_>
    <!-- stage 3 -->
    <_>
      <maxWeakCount>7</maxWeakCount>
      <stageThreshold>-5.4852575063705444e-01</stageThreshold>
      <weakClassifiers>
        <_>
          <internalNodes>
            0 -1 96 209460260 1651269620 134479871 784121700 -798132452
            2147411969 -1092850636 601361660</internalNodes>
          <leafValues>
            -4.3333333730697632e-01 6.6470587253570557e-01</leafValues></_>
        <_>
          <internalNodes>
            0 -1 34 418179996 935079869 -587288982 -1075708248
            1819043426 217382389 -575148155 1289854036</internalNodes>
          <leafValues>
            -3.7202468514442444e-01 5.9119516611099243e-01</leafValues></_>
        <_>
          <internalNodes>
            0 -1 6 17077572 -2146384606 1091906544 107004337 155844641
            -1160772856 1215307776 1421105153</internalNodes>
          <leafValues>
            -6.8620979785919189e-01 3.9848029613494873e-01</leafValues></_>
        <_>
          <internalNodes>
            0 -1 66 151097263 143688977 2434564 -1489729452 26280023
            419530888 -2145087439 312796481</internalNodes>
          <leafValues>
            -6.0503524541854858e-01 4.5708438754081726e-01</leafValues></_>
        <_>
          <internalNodes>
            0 -1 44 1011159369 -402389646 1109606859 -876248486
            1895842958 344490061 -722745146 1750196232</internalNodes>
          <leafValues>
            -5.2303510904312134e-01 5.6639957427978516e-01</leafValues></_>
        <_>
          <internalNodes>
            0 -1 93 71146309 1856929343 2147482365 1735769847 1033142173
            -604578467 -1350781443 -1145250444</internalNodes>
          <leafValues>
            -5.0282603502273560e-01 6.1033684015274048e-01</leafValues></_>
        <_>
          <internalNodes>
            0 -1 82 22298105 6058120 -1607466925 -1455782720 -1853774525
            -251616117 -1060468544 1156058144</internalNodes>
          <leafValues>
            -5.7201081514358521e-01 5.3038167953491211e-01</leafValues></_></weakClassifiers></_>
    <!-- stage 4 -->
    <_>
      <maxWeakCount>7</maxWeakCount>
      <stageThreshold>-2.6336977258324623e-02</stageThreshold>
      <weakClassifiers>
        <_>
          <internalNodes>
            0 -1 97 773064540 784129915 1073540966 -1431671019 524107381
            939294389 2125758309 537924784</internalNodes>
          <leafValues>
            -4.8356807231903076e-01 7.1225935220718384e-01</leafValues></_>
        <_>
          <internalNodes>
            0 -1 95 643576689 1717059580 -41959473 1055829877 -579428749
            402571231 -562069915 -1124586296</internalNodes>
          <leafValues>
            -4.2244744300842285e-01 7.1266484260559082e-01</leafValues></_>
        <_>
          <internalNodes>
            0 -1 23 204545521 1719193215 -537020481 -1829212296 -9142448
            -1879048203 -327336121 -1496290700</internalNodes>
          <leafValues>
            -4.9769508838653564e-01 6.6275048255920410e-01</leafValues></_>
        <_>
          <internalNodes>
            0 -1 103 629936221 -1345019910 872341359 -269036169
            1602190311 -138575899 637418992 -1394593963</internalNodes>
          <leafValues>
            -4.9990794062614441e-01 6.7784202098846436e-01</leafValues></_>
        <_>
          <internalNodes>
            0 -1 42 -520580384 938471398 -17302706 -1175322649 670473202
            -1283457047 -134220243 286783489</internalNodes>
          <leafValues>
            -5.5024349689483643e-01 6.8220698833465576e-01</leafValues></_>
        <_>
          <internalNodes>
            0 -1 46 783159089 785285015 -168026 1320058743 2138384150
            536805311 864023591 -296878476</internalNodes>
          <leafValues>
            -4.8413038253784180e-01 7.4224162101745605e-01</leafValues></_>
        <_>
          <internalNodes>
            0 -1 86 205392345 -1095041153 -4407428 -357122092 535984759
            -270686340 2113910642 -1399825040</internalNodes>
          <leafValues>
            -5.7972979545593262e-01 6.4533495903015137e-01</leafValues></_></weakClassifiers></_>
    <!-- stage 5 -->
    <_>
      <maxWeakCount>8</maxWeakCount>
      <stageThreshold>-1.1737825870513916e+00</stageThreshold>
      <weakClassifiers>
        <_>
          <internalNodes>
            0 -1 63 103825277 -1931952387 -131220 -1947452441 2102427484
            2080210943 2079731380 640683292</internalNodes>
          <leafValues>
            -3.2352942228317261e-01 7.4137932062149048e-01</leafValues></_>
        <_>
          <internalNodes>
            0 -1 73 67636565 671205825 -1332723702 -1371503481
            1103310387 -897519023 -1164266480 1624774240</internalNodes>
          <leafValues>
            -5.2537930011749268e-01 5.8654725551605225e-01</leafValues></_>
        <_>
          <internalNodes>
            0 -1 11 676605733 178442974 -1857388233 -1602049830
            1200218519 1927874569 -334640896 42992644</internalNodes>
          <leafValues>
            -6.1425155401229858e-01 5.4154711961746216e-01</leafValues></_>
        <_>
          <internalNodes>
            0 -1 90 47449633 -2011459088 -2103230197 1787068676
            923279391 -643712761 1772185648 -1707029404</internalNodes>
          <leafValues>
            -5.5280792713165283e-01 6.1484855413436890e-01</leafValues></_>
        <_>
          <internalNodes>
            0 -1 83 1569198625 -2001648876 1782110001 697886 1044463725
            1201070244 1009918017 139463044</internalNodes>
          <leafValues>
            -7.2348409891128540e-01 4.7984841465950012e-01</leafValues></_>
        <_>
          <internalNodes>
            0 -1 54 636754480 -823296099 -268452313 -218234923
            -831230139 -1210554373 1073633653 -1768652855</internalNodes>
          <leafValues>
            -5.5954706668853760e-01 6.6264218091964722e-01</leafValues></_>
        <_>
          <internalNodes>
            0 -1 32 481563805 -1509876443 -803458550 1825610371
            113786945 -100351995 831182896 1751411716</internalNodes>
          <leafValues>
            -6.6431659460067749e-01 5.4673051834106445e-01</leafValues></_>
        <_>
          <internalNodes>
            0 -1 33 -1878800193 893485331 262175 553714178 -1073364931
            -1476328951 50561684 536936833</internalNodes>
          <leafValues>
            -5.5495840311050415e-01 7.1048891544342041e-01</leafValues></_></weakClassifiers></_>
    <!-- stage 6 -->
    <_>
      <maxWeakCount>7</maxWeakCount>
      <stageThreshold>-2.0651856064796448e-01</stageThreshold>
      <weakClassifiers>
        <_>
          <internalNodes>
            0 -1 100 249832753 800751357 -537428100 -1351860228
            -1107787787 939491191 2147434324 552611620</internalNodes>
          <leafValues>
            -4.2975205183029175e-01 7.3486429452896118e-01</leafValues></_>
        <_>
          <internalNodes>
            0 -1 101 104137571 779910653 1878966243 -1368457738
            -1283643625 -1476755500 -1644691979 1857068453</internalNodes>
          <leafValues>
            -4.3281054496765137e-01 7.4704170227050781e-01</leafValues></_>
        <_>
          <internalNodes>
            0 -1 18 268653 746520573 -553713795 1929134066 -1653219355
            -1233715338 -1176518819 -1091553427</internalNodes>
          <leafValues>
            -5.0340223312377930e-01 7.0365089178085327e-01</leafValues></_>
        <_>
          <internalNodes>
            0 -1 8 70255577 588255232 289114132 -1623006698 -1719628791
            549650695 -865803932 -1443851456</internalNodes>
          <leafValues>
            -5.6649452447891235e-01 6.4980030059814453e-01</leafValues></_>
        <_>
          <internalNodes>
            0 -1 62 167773599 -384629229 -2142420713 438368010
            1119035671 -243202848 1713095336 -352306452</internalNodes>
          <leafValues>
            -5.4251867532730103e-01 7.5659596920013428e-01</leafValues></_>
        <_>
          <internalNodes>
            0 -1 65 769721253 653098237 -17568 562880510 939480949
            -273580097 1035316549 -2105533284</internalNodes>
          <leafValues>
            -5.9639292955398560e-01 6.8210935592651367e-01</leafValues></_>
        <_>
          <internalNodes>
            0 -1 92 578956497 1347166347 -1072623565 -1592254416
            -2146941329 5689479 2058957441 -1561327152</internalNodes>
          <leafValues>
            -6.9591104984283447e-01 5.9715133905410767e-01</leafValues></_></weakClassifiers></_>
    <!-- stage 7 -->
    <_>
      <maxWeakCount>6</maxWeakCount>
      <stageThreshold>-6.4341306686401367e-01</stageThreshold>
      <weakClassifiers>
        <_>
          <internalNodes>
            0 -1 108 142421261 753046655 2120445671 -1470202116
            805142357 -805396484 -1209632955 1280335040</internalNodes>
          <leafValues>
            -1.7877094447612762e-01 7.8859859704971313e-01</leafValues></_>
        <_>
          <internalNodes>
            0 -1 1 754218797 -1426211073 2130669565 -1497485442 -4327554
            -268566657 -285245584 -1565257148</internalNodes>
          <leafValues>
            -4.6317046880722046e-01 6.4196175336837769e-01</leafValues></_>
        <_>
          <internalNodes>
            0 -1 112 570469677 2228276 -482178537 1285820692 674312777
            1961540393 1625686293 2113971464</internalNodes>
          <leafValues>
            -5.7974928617477417e-01 5.4234606027603149e-01</leafValues></_>
        <_>
          <internalNodes>
            0 -1 56 68432909 2231877 -436124191 -532524136 103876353
            -1985361534 -1599684093 945834136</internalNodes>
          <leafValues>
            -6.5437281131744385e-01 5.2138710021972656e-01</leafValues></_>
        <_>
          <internalNodes>
            0 -1 70 689977927 -806578313 -1073760352 213843881
            1610481269 -1301815627 2130599684 -85702108</internalNodes>
          <leafValues>
            -4.8703294992446899e-01 7.3036760091781616e-01</leafValues></_>
        <_>
          <internalNodes>
            0 -1 110 248855925 -1897005185 -268501009 -313989122
            -79143106 -131138 -688472204 -1393282023</internalNodes>
          <leafValues>
            -5.0848770141601562e-01 7.5231391191482544e-01</leafValues></_></weakClassifiers></_>
    <!-- stage 8 -->
    <_>
      <maxWeakCount>7</maxWeakCount>
      <stageThreshold>-3.3482232689857483e-01</stageThreshold>
      <weakClassifiers>
        <_>
          <internalNodes>
            0 -1 9 212089600 -1392625699 -24722 1853652976 1065909601
            -1241518089 -1275199628 619722304</internalNodes>
          <leafValues>
            -5.4146343469619751e-01 7.1457284688949585e-01</leafValues></_>
        <_>
          <internalNodes>
            0 -1 109 517211933 1342128123 -1082163347 778915196
            -1222689072 -805928963 -151695 -1127738304</internalNodes>
          <leafValues>
            -4.6666523814201355e-01 7.2670274972915649e-01</leafValues></_>
        <_>
          <internalNodes>
            0 -1 80 130299157 1510723842 1758491729 1076890754
            -2004676576 -1069513461 -2130671308 1054915396</internalNodes>
          <leafValues>
            -6.0958975553512573e-01 6.0153532028198242e-01</leafValues></_>
        <_>
          <internalNodes>
            0 -1 76 719355773 -1476395395 -42356867 -1396916247
            1727937851 -1241583875 -1086939786 -1376772640</internalNodes>
          <leafValues>
            -5.1758062839508057e-01 7.3625314235687256e-01</leafValues></_>
        <_>
          <internalNodes>
            0 -1 102 40897815 -1453243133 1073955093 -1607922112
            822235248 -564068153 109578917 834154092</internalNodes>
          <leafValues>
            -6.7660212516784668e-01 5.8407890796661377e-01</leafValues></_>
        <_>
          <internalNodes>
            0 -1 47 5255477 571998528 839250841 1504827576 -1605762671
            -1069972845 159394898 -1396954112</internalNodes>
          <leafValues>
            -5.8218979835510254e-01 6.9365197420120239e-01</leafValues></_>
        <_>
          <internalNodes>
            0 -1 37 421527861 1108349257 -1602221547 -1012792464
            1082262116 -1409056765 -2055094212 -252170768</internalNodes>
          <leafValues>
            -6.0126072168350220e-01 6.7069721221923828e-01</leafValues></_></weakClassifiers></_>
    <!-- stage 9 -->
    <_>
      <maxWeakCount>7</maxWeakCount>
      <stageThreshold>-4.3215483427047729e-01</stageThreshold>
      <weakClassifiers>
        <_>
          <internalNodes>
            0 -1 17 292 137368065 538714244 -2138832124 673841490
            1090617377 673711172 1074797380</internalNodes>
          <leafValues>
            -8.2142859697341919e-01 6.3602942228317261e-01</leafValues></_>
        <_>
          <internalNodes>
            0 -1 19 -1929850371 1172999220 -16964 -486781348 -37784015
            1660829276 930413964 1739653493</internalNodes>
          <leafValues>
            -3.6900123953819275e-01 7.3473149538040161e-01</leafValues></_>
        <_>
          <internalNodes>
            0 -1 105 699223871 -1885480775 -805847910 -1964195969
            1039543151 -704978953 -12749529 -864510239</internalNodes>
          <leafValues>
            -4.2820072174072266e-01 7.5317984819412231e-01</leafValues></_>
        <_>
          <internalNodes>
            0 -1 87 103547141 1186243351 -1983645423 -1400073773
            -1425451883 201332879 -786562879 1031074444</internalNodes>
          <leafValues>
            -5.9914839267730713e-01 5.3705108165740967e-01</leafValues></_>
        <_>
          <internalNodes>
            0 -1 12 1313961 1220006570 -639413360 783941769 574783829
            -427679735 2058029313 1848686849</internalNodes>
          <leafValues>
            -6.7167812585830688e-01 5.0555717945098877e-01</leafValues></_>
        <_>
          <internalNodes>
            0 -1 25 -1462720724 719207967 737681276 -2034335746
            -1078112503 -164139164 644787617 -259029471</internalNodes>
          <leafValues>
            -5.6075406074523926e-01 6.3677042722702026e-01</leafValues></_>
        <_>
          <internalNodes>
            0 -1 10 135624021 67475553 -1316932760 -368311677 -912768764
            -226316247 -1362943132 145048384</internalNodes>
          <leafValues>
            -6.7933392524719238e-01 5.3343683481216431e-01</leafValues></_></weakClassifiers></_>
    <!-- stage 10 -->
    <_>
      <maxWeakCount>7</maxWeakCount>
      <stageThreshold>-1.2099833488464355e+00</stageThreshold>
      <weakClassifiers>
        <_>
          <internalNodes>
            0 -1 104 335819829 1744723932 1874796543 -320066562
            1006467061 -687931651 -201410700 245896944</internalNodes>
          <leafValues>
            -3.1386861205101013e-01 7.4082070589065552e-01</leafValues></_>
        <_>
          <internalNodes>
            0 -1 57 592991253 -1880801564 -25427987 -453262034
            -1610825761 -33685509 1878130044 -1373852292</internalNodes>
          <leafValues>
            -3.3590832352638245e-01 7.2734445333480835e-01</leafValues></_>
        <_>
          <internalNodes>
            0 -1 88 522478491 537007617 -530202157 1447725320 1888895109
            -1442774293 -2144593136 550246528</internalNodes>
          <leafValues>
            -5.6403028964996338e-01 5.6339478492736816e-01</leafValues></_>
        <_>
          <internalNodes>
            0 -1 107 261369725 536641510 1073675971 -291538433
            -1610678404 -147325459 898979430 -21493768</internalNodes>
          <leafValues>
            -5.0957763195037842e-01 6.1723208427429199e-01</leafValues></_>
        <_>
          <internalNodes>
            0 -1 26 119101201 268621171 205853790 705713176 1445945
            310955030 -456725947 -1840754108</internalNodes>
          <leafValues>
            -5.5920559167861938e-01 5.9057456254959106e-01</leafValues></_>
        <_>
          <internalNodes>
            0 -1 98 306453285 -1039626152 135299308 1145864456
            -2122258264 283738253 137038337 901513584</internalNodes>
          <leafValues>
            -6.9223690032958984e-01 5.2715462446212769e-01</leafValues></_>
        <_>
          <internalNodes>
            0 -1 38 -1370938075 -1170185838 -1067417199 1132002266
            1744857787 1073905794 -511635436 -484121552</internalNodes>
          <leafValues>
            -5.8135724067687988e-01 6.0073518753051758e-01</leafValues></_></weakClassifiers></_>
    <!-- stage 11 -->
    <_>
      <maxWeakCount>8</maxWeakCount>
      <stageThreshold>-6.8849188089370728e-01</stageThreshold>
      <weakClassifiers>
        <_>
          <internalNodes>
            0 -1 79 171705653 230490109 -135300 -1342373929 -1210122640
            -1346437385 -1078067356 -1431552188</internalNodes>
          <leafValues>
            -1.9034852087497711e-01 8.1136637926101685e-01</leafValues></_>
        <_>
          <internalNodes>
            0 -1 7 106432957 -1360564235 -1090519044 -93388803 -147465
            652197880 2147254268 -1091556004</internalNodes>
          <leafValues>
            -4.8824125528335571e-01 6.6774398088455200e-01</leafValues></_>
        <_>
          <internalNodes>
            0 -1 84 154936733 1124209152 -2129981150 -1870639101
            -503250803 1074659328 -2121856640 -1205328432</internalNodes>
          <leafValues>
            -6.7738735675811768e-01 5.3591638803482056e-01</leafValues></_>
        <_>
          <internalNodes>
            0 -1 111 161745421 -285245443 1073676286 -268980488
            2146727799 -402653187 -277366282 -1075036872</internalNodes>
          <leafValues>
            -5.8705174922943115e-01 6.4591294527053833e-01</leafValues></_>
        <_>
          <internalNodes>
            0 -1 28 761336433 -1241536019 -81929 536373881 611661308
            -923468804 -1074194498 1450325228</internalNodes>
          <leafValues>
            -5.0517421960830688e-01 7.2645276784896851e-01</leafValues></_>
        <_>
          <internalNodes>
            0 -1 60 635977293 -1291874306 -49554 -1610731537 -1879771553
            628416511 -16781873 -1221587756</internalNodes>
          <leafValues>
            -5.1050448417663574e-01 7.3497295379638672e-01</leafValues></_>
        <_>
          <internalNodes>
            0 -1 15 89131333 -2142103808 688131 -400785152 134788105
            554221581 1342931081 -1520425524</internalNodes>
          <leafValues>
            -6.2550699710845947e-01 6.4215278625488281e-01</leafValues></_>
        <_>
          <internalNodes>
            0 -1 106 1001138029 -1392791554 -134975510 -319389829
            1868005373 1308491774 -2017493084 -1092846464</internalNodes>
          <leafValues>
            -5.7761180400848389e-01 6.8070405721664429e-01</leafValues></_></weakClassifiers></_>
    <!-- stage 12 -->
    <_>
      <maxWeakCount>7</maxWeakCount>
      <stageThreshold>-2.1633863449096680e-02</stageThreshold>
      <weakClassifiers>
        <_>
          <internalNodes>
            0 -1 85 91233845 667336572 1879014964 -1428226376 1878415221
            -1258717186 -805931148 106441748</internalNodes>
          <leafValues>
            -4.0890687704086304e-01 7.3557186126708984e-01</leafValues></_>
        <_>
          <internalNodes>
            0 -1 91 10357629 -2034434122 -147737 -859113871 1072723760
            -705167618 -277291036 -1466912996</internalNodes>
          <leafValues>
            -4.8220270872116089e-01 7.0820730924606323e-01</leafValues></_>
        <_>
          <internalNodes>
            0 -1 94 80616817 754761727 2147350319 -1996604691
            -1099097308 -404783245 -164879 -1075823340</internalNodes>
          <leafValues>
            -4.8937892913818359e-01 7.2237044572830200e-01</leafValues></_>
        <_>
          <internalNodes>
            0 -1 72 42010919 -1473772747 553754946 -1969420080
            1389037653 -221607836 -523091676 -462407012</internalNodes>
          <leafValues>
            -5.3989380598068237e-01 6.7063039541244507e-01</leafValues></_>
        <_>
          <internalNodes>
            0 -1 89 222833993 1611485559 1485570053 1221652736
            1847675229 1401202697 -249380303 -1346370492</internalNodes>
          <leafValues>
            -6.1003416776657104e-01 6.2949740886688232e-01</leafValues></_>
        <_>
          <internalNodes>
            0 -1 67 536613669 565444572 -1610678322 -88162433 -681760985
            -679821443 -18948554 -433016900</internalNodes>
          <leafValues>
            -5.2644121646881104e-01 7.2448253631591797e-01</leafValues></_>
        <_>
          <internalNodes>
            0 -1 13 198785557 -1433075850 -1073840240 -299438099
            1868364373 -1258883081 -1108283546 -1226854763</internalNodes>
          <leafValues>
            -5.1018911600112915e-01 7.6797097921371460e-01</leafValues></_></weakClassifiers></_>
    <!-- stage 13 -->
    <_>
      <maxWeakCount>8</maxWeakCount>
      <stageThreshold>-6.7902433872222900e-01</stageThreshold>
      <weakClassifiers>
        <_>
          <internalNodes>
            0 -1 16 652086057 250444366 -537460820 -454250704 -142770315
            1702494189 -945496252 7540</internalNodes>
          <leafValues>
            -2.9644268751144409e-01 7.1277719736099243e-01</leafValues></_>
        <_>
          <internalNodes>
            0 -1 64 141824871 -2003668775 -2146396970 1317028470
            34743060 19286401 939987777 175421481</internalNodes>
          <leafValues>
            -5.1094520092010498e-01 5.4669046401977539e-01</leafValues></_>
        <_>
          <internalNodes>
            0 -1 30 -1816605099 -1813790754 2130656866 -419594459
            -403243307 -151617603 -780289342 553636155</internalNodes>
          <leafValues>
            -4.0258187055587769e-01 7.2760212421417236e-01</leafValues></_>
        <_>
          <internalNodes>
            0 -1 77 456531297 553250551 -268484698 1245085687 -289530559
            -13688985 -1888043707 -2098100907</internalNodes>
          <leafValues>
            -4.8672750592231750e-01 6.0160273313522339e-01</leafValues></_>
        <_>
          <internalNodes>
            0 -1 3 217062133 -1527988400 -553730318 -1493929025
            -1375733993 -973086857 -1636532923 -592151055</internalNodes>
          <leafValues>
            -5.0907212495803833e-01 6.1374002695083618e-01</leafValues></_>
        <_>
          <internalNodes>
            0 -1 31 -1271912600 -987714299 340103442 -635404155
            1074990413 -1606274938 1929959169 -2011124991</internalNodes>
          <leafValues>
            -5.4927963018417358e-01 6.0604214668273926e-01</leafValues></_>
        <_>
          <internalNodes>
            0 -1 2 -2134800108 1358987268 -671088624 436240384
            -931085299 1207959584 16384 705627315</internalNodes>
          <leafValues>
            -5.7790708541870117e-01 5.7829213142395020e-01</leafValues></_>
        <_>
          <internalNodes>
            0 -1 78 134511957 1350619729 805410918 816095593 -1860417533
            -495935488 679511044 -1858076638</internalNodes>
          <leafValues>
            -6.1334967613220215e-01 5.8707618713378906e-01</leafValues></_></weakClassifiers></_>
    <!-- stage 14 -->
    <_>
      <maxWeakCount>7</maxWeakCount>
      <stageThreshold>-2.4688245356082916e-01</stageThreshold>
      <weakClassifiers>
        <_>
          <internalNodes>
            0 -1 27 144977788 519364605 -1073758408 -1560612868
            -1074496139 -1485390340 -142770500 -1497352332</internalNodes>
          <leafValues>
            -2.9454544186592102e-01 7.3621618747711182e-01</leafValues></_>
        <_>
          <internalNodes>
            0 -1 81 794566289 -1578324242 2038296575 712523772 668286837
            1459191767 -276924623 -1528549744</internalNodes>
          <leafValues>
            -4.8664727807044983e-01 6.0142856836318970e-01</leafValues></_>
        <_>
          <internalNodes>
            0 -1 21 -1345044883 -360890372 2147299151 800368376
            2012966241 -1619099795 -545311307 -1125607340</internalNodes>
          <leafValues>
            -4.2165058851242065e-01 6.9418275356292725e-01</leafValues></_>
        <_>
          <internalNodes>
            0 -1 53 542151552 2034303262 -2147418057 1654174220
            -1332509947 1610679426 -1328772862 1908703427</internalNodes>
          <leafValues>
            -5.3940409421920776e-01 5.6533175706863403e-01</leafValues></_>
        <_>
          <internalNodes>
            0 -1 40 -315314885 -492503323 -1350664202 -1073837316
            -311068804 -260640839 -1612158103 -1972761056</internalNodes>
          <leafValues>
            -4.9142000079154968e-01 7.2273218631744385e-01</leafValues></_>
        <_>
          <internalNodes>
            0 -1 0 15074653 -2067693566 -1207877085 741343248
            -1056440156 1940619648 -1340433116 615255892</internalNodes>
          <leafValues>
            -6.6711455583572388e-01 5.2164608240127563e-01</leafValues></_>
        <_>
          <internalNodes>
            0 -1 71 223626041 1147163776 8945794 -1285402238 -2130443653
            1918940683 -486479412 -1376244628</internalNodes>
          <leafValues>
            -5.6967383623123169e-01 6.5159964561462402e-01</leafValues></_></weakClassifiers></_></stages>
  <features>
    <_>
      <rect>
        0 10 2 4</rect></_>
    <_>
      <rect>
        0 12 1 6</rect></_>
    <_>
      <rect>
        0 14 19 7</rect></_>
    <_>
      <rect>
        0 16 2 2</rect></_>
    <_>
      <rect>
        0 22 21 10</rect></_>
    <_>
      <rect>
        1 14 12 13</rect></_>
    <_>
      <rect>
        2 8 1 1</rect></_>
    <_>
      <rect>
        2 14 1 8</rect></_>
    <_>
      <rect>
        2 23 2 6</rect></_>
    <_>
      <rect>
        3 23 1 6</rect></_>
    <_>
      <rect>
        3 39 1 2</rect></_>
    <_>
      <rect>
        4 5 1 2</rect></_>
    <_>
      <rect>
        4 14 1 2</rect></_>
    <_>
      <rect>
        4 21 2 2</rect></_>
    <_>
      <rect>
        7 8 10 8</rect></_>
    <_>
      <rect>
        7 39 1 4</rect></_>
    <_>
      <rect>
        7 48 2 2</rect></_>
    <_>
      <rect>
        8 9 5 1</rect></_>
    <_>
      <rect>
        8 17 1 5</rect></_>
    <_>
      <rect>
        8 27 9 9</rect></_>
    <_>
      <rect>
        9 35 9 1</rect></_>
    <_>
      <rect>
        9 50 2 3</rect></_>
    <_>
      <rect>
        10 11 2 1</rect></_>
    <_>
      <rect>
        10 41 1 4</rect></_>
    <_>
      <rect>
        10 46 1 1</rect></_>
    <_>
      <rect>
        11 33 5 4</rect></_>
    <_>
      <rect>
        11 53 2 2</rect></_>
    <_>
      <rect>
        12 1 2 9</rect></_>
    <_>
      <rect>
        13 13 7 8</rect></_>
    <_>
      <rect>
        13 31 3 1</rect></_>
    <_>
      <rect>
        13 31 13 5</rect></_>
    <_>
      <rect>
        13 54 2 3</rect></_>
    <_>
      <rect>
        14 18 1 1</rect></_>
    <_>
      <rect>
        15 30 12 6</rect></_>
    <_>
      <rect>
        15 39 9 5</rect></_>
    <_>
      <rect>
        16 32 1 1</rect></_>
    <_>
      <rect>
        16 33 14 10</rect></_>
    <_>
      <rect>
        16 35 1 4</rect></_>
    <_>
      <rect>
        17 11 2 6</rect></_>
    <_>
      <rect>
        17 31 1 1</rect></_>
    <_>
      <rect>
        17 48 3 3</rect></_>
    <_>
      <rect>
        18 17 9 9</rect></_>
    <_>
      <rect>
        19 21 7 8</rect></_>
    <_>
      <rect>
        19 37 2 1</rect></_>
    <_>
      <rect>
        19 48 1 1</rect></_>
    <_>
      <rect>
        20 18 7 2</rect></_>
    <_>
      <rect>
        21 1 2 1</rect></_>
    <_>
      <rect>
        21 9 1 3</rect></_>
    <_>
      <rect>
        21 21 2 1</rect></_>
    <_>
      <rect>
        22 39 1 3</rect></_>
    <_>
      <rect>
        23 28 3 2</rect></_>
    <_>
      <rect>
        24 17 1 1</rect></_>
    <_>
      <rect>
        24 23 4 2</rect></_>
    <_>
      <rect>
        26 10 1 2</rect></_>
    <_>
      <rect>
        26 17 1 1</rect></_>
    <_>
      <rect>
        26 24 2 1</rect></_>
    <_>
      <rect>
        28 6 1 1</rect></_>
    <_>
      <rect>
        29 4 1 4</rect></_>
    <_>
      <rect>
        29 31 2 2</rect></_>
    <_>
      <rect>
        29 31 9 5</rect></_>
    <_>
      <rect>
        31 1 4 5</rect></_>
    <_>
      <rect>
        31 10 8 8</rect></_>
    <_>
      <rect>
        32 0 1 3</rect></_>
    <_>
      <rect>
        32 1 1 5</rect></_>
    <_>
      <rect>
        32 5 2 2</rect></_>
    <_>
      <rect>
        33 7 2 2</rect></_>
    <_>
      <rect>
        33 8 3 1</rect></_>
    <_>
      <rect>
        34 1 6 5</rect></_>
    <_>
      <rect>
        35 53 1 2</rect></_>
    <_>
      <rect>
        36 33 1 1</rect></_>
    <_>
      <rect>
        36 45 2 1</rect></_>
    <_>
      <rect>
        37 12 3 4</rect></_>
    <_>
      <rect>
        37 33 6 2</rect></_>
    <_>
      <rect>
        38 7 1 1</rect></_>
    <_>
      <rect>
        38 34 3 3</rect></_>
    <_>
      <rect>
        40 5 8 10</rect></_>
    <_>
      <rect>
        40 52 1 4</rect></_>
    <_>
      <rect>
        41 3 4 2</rect></_>
    <_>
      <rect>
        43 55 2 3</rect></_>
    <_>
      <rect>
        45 0 1 7</rect></_>
    <_>
      <rect>
        45 17 1 6</rect></_>
    <_>
      <rect>
        45 21 2 4</rect></_>
    <_>
      <rect>
        45 46 3 2</rect></_>
    <_>
      <rect>
        46 43 1 1</rect></_>
    <_>
      <rect>
        47 3 1 12</rect></_>
    <_>
      <rect>
        47 11 2 5</rect></_>
    <_>
      <rect>
        47 27 1 3</rect></_>
    <_>
      <rect>
        48 1 1 2</rect></_>
    <_>
      <rect>
        48 46 1 4</rect></_>
    <_>
      <rect>
        50 1 2 3</rect></_>
    <_>
      <rect>
        50 48 1 2</rect></_>
    <_>
      <rect>
        51 2 3 4</rect></_>
    <_>
      <rect>
        51 47 1 5</rect></_>
    <_>
      <rect>
        52 5 1 3</rect></_>
    <_>
      <rect>
        53 24 2 3</rect></_>
    <_>
      <rect>
        54 0 1 3</rect></_>
    <_>
      <rect>
        54 10 1 6</rect></_>
    <_>
      <rect>
        54 23 1 3</rect></_>
    <_>
      <rect>
        54 33 1 3</rect></_>
    <_>
      <rect>
        54 42 2 2</rect></_>
    <_>
      <rect>
        55 2 1 7</rect></_>
    <_>
      <rect>
        55 15 1 2</rect></_>
    <_>
      <rect>
        55 22 1 3</rect></_>
    <_>
      <rect>
        56 0 1 3</rect></_>
    <_>
      <rect>
        56 6 1 5</rect></_>
    <_>
      <rect>
        57 0 2 1</rect></_>
    <_>
      <rect>
        57 55 1 3</rect></_>
    <_>
      <rect>
        58 24 1 4</rect></_>
    <_>
      <rect>
        60 6 1 1</rect></_>
    <_>
      <rect>
        60 27 1 4</rect></_>
    <_>
      <rect>
        61 19 1 2</rect></_>
    <_>
      <rect>
        61 26 1 8</rect></_>
    <_>
      <rect>
        61 34 1 1</rect></_></features></heartclassifier>
</opencv_storage>
