<?xml version="1.0"?>
<opencv_storage>
  <cascade>
  <stageType>BOOST</stageType>
  <featureType>HAAR</featureType>
  <height>64</height>
  <width>64</width>
  <stageParams>
    <boostType>GAB</boostType>
    <minHitRate>9.9900001287460327e-01</minHitRate>
    <maxFalseAlarm>5.0000000000000000e-01</maxFalseAlarm>
    <weightTrimRate>9.4999999999999996e-01</weightTrimRate>
    <maxDepth>1</maxDepth>
    <maxWeakCount>100</maxWeakCount></stageParams>
  <featureParams>
    <maxCatCount>0</maxCatCount>
    <featSize>1</featSize>
    <mode>ALL</mode></featureParams>
    <stageNum>1</stageNum>
    <stages>
  <_>
  <maxWeakCount>25</maxWeakCount>
  <stageThreshold>-6.6325300931930542e-01</stageThreshold>
  <weakClassifiers>
    <_>
      <internalNodes>
        0 -1 535114 -1.0519352555274963e-01</internalNodes>
      <leafValues>
        7.1428574621677399e-02 6.2404090166091919e-01</leafValues></_>
    <_>
      <internalNodes>
        0 -1 7521904 -3.1915790168568492e-04</internalNodes>
      <leafValues>
        6.7113977670669556e-01 -5.7013817131519318e-02</leafValues></_>
    <_>
      <internalNodes>
        0 -1 3444535 7.2706746868789196e-04</internalNodes>
      <leafValues>
        1.1031698435544968e-01 -7.7497065067291260e-01</leafValues></_>
    <_>
      <internalNodes>
        0 -1 7515575 1.1750517878681421e-03</internalNodes>
      <leafValues>
        -1.9424742460250854e-01 6.3132059574127197e-01</leafValues></_>
    <_>
      <internalNodes>
        0 -1 6411306 -3.8464870885945857e-04</internalNodes>
      <leafValues>
        4.7763255238533020e-01 -2.1379864215850830e-01</leafValues></_>
    <_>
      <internalNodes>
        0 -1 666499 1.8041876610368490e-03</internalNodes>
      <leafValues>
        1.6790026426315308e-01 -6.3835662603378296e-01</leafValues></_>
    <_>
      <internalNodes>
        0 -1 11448297 -6.6198688000440598e-03</internalNodes>
      <leafValues>
        4.8640322685241699e-01 -1.6087782382965088e-01</leafValues></_>
    <_>
      <internalNodes>
        0 -1 13186667 -8.3814091340173036e-05</internalNodes>
      <leafValues>
        -4.7033357620239258e-01 1.5179057419300079e-01</leafValues></_>
    <_>
      <internalNodes>
        0 -1 6957154 2.9539881506934762e-04</internalNodes>
      <leafValues>
        -1.3417768478393555e-01 5.2223503589630127e-01</leafValues></_>
    <_>
      <internalNodes>
        0 -1 8870924 2.0936043001711369e-03</internalNodes>
      <leafValues>
        1.3379520177841187e-01 -6.2387609481811523e-01</leafValues></_>
    <_>
      <internalNodes>
        0 -1 11566447 -8.6980294436216354e-03</internalNodes>
      <leafValues>
        5.3327876329421997e-01 -1.4904814958572388e-01</leafValues></_>
    <_>
      <internalNodes>
        0 -1 6739184 1.5567380003631115e-02</internalNodes>
      <leafValues>
        -7.3295138776302338e-02 7.4165427684783936e-01</leafValues></_>
    <_>
      <internalNodes>
        0 -1 208192 1.7221356974914670e-03</internalNodes>
      <leafValues>
        1.5586635470390320e-01 -4.8188966512680054e-01</leafValues></_>
    <_>
      <internalNodes>
        0 -1 7543161 -5.7678483426570892e-04</internalNodes>
      <leafValues>
        4.9573895335197449e-01 -1.5584024786949158e-01</leafValues></_>
    <_>
      <internalNodes>
        0 -1 1422497 -3.2020029611885548e-03</internalNodes>
      <leafValues>
        3.0806529521942139e-01 -2.3288217186927795e-01</leafValues></_>
    <_>
      <internalNodes>
        0 -1 6121556 7.0494948886334896e-05</internalNodes>
      <leafValues>
        -2.6717770099639893e-01 2.9461920261383057e-01</leafValues></_>
    <_>
      <internalNodes>
        0 -1 2278649 -1.1510403454303741e-01</internalNodes>
      <leafValues>
        -4.4357472658157349e-01 1.8440534174442291e-01</leafValues></_>
    <_>
      <internalNodes>
        0 -1 2015022 4.0259405977849383e-06</internalNodes>
      <leafValues>
        -2.4716122448444366e-01 3.0986636877059937e-01</leafValues></_>
    <_>
      <internalNodes>
        0 -1 12937765 2.5236370856873691e-04</internalNodes>
      <leafValues>
        1.4203426241874695e-01 -5.9330475330352783e-01</leafValues></_>
    <_>
      <internalNodes>
        0 -1 11081204 -2.1733112633228302e-02</internalNodes>
      <leafValues>
        5.4818391799926758e-01 -1.4704164862632751e-01</leafValues></_>
    <_>
      <internalNodes>
        0 -1 3110909 1.5844323206692934e-03</internalNodes>
      <leafValues>
        1.0184043645858765e-01 -8.1450778245925903e-01</leafValues></_>
    <_>
      <internalNodes>
        0 -1 11180538 1.1621327139437199e-03</internalNodes>
      <leafValues>
        -1.0440092533826828e-01 8.5356092453002930e-01</leafValues></_>
    <_>
      <internalNodes>
        0 -1 13342604 5.0503022066550329e-06</internalNodes>
      <leafValues>
        -2.5794103741645813e-01 2.9358512163162231e-01</leafValues></_>
    <_>
      <internalNodes>
        0 -1 7856602 8.9617236517369747e-04</internalNodes>
      <leafValues>
        -1.2335133552551270e-01 5.8180469274520874e-01</leafValues></_>
    <_>
      <internalNodes>
        0 -1 7329857 4.8285699449479580e-04</internalNodes>
      <leafValues>
        1.4442503452301025e-01 -6.2631446123123169e-01</leafValues></_></weakClassifiers></_>
    </stages>
  </cascade>
</opencv_storage>
