<?xml version="1.0"?>
<opencv_storage>
<trianglesclassifier>
  <stageType>BOOST</stageType>
  <featureType>LBP</featureType>
  <height>64</height>
  <width>64</width>
  <stageParams>
    <boostType>GAB</boostType>
    <minHitRate>9.9900001287460327e-01</minHitRate>
    <maxFalseAlarm>5.0000000000000000e-01</maxFalseAlarm>
    <weightTrimRate>9.4999999999999996e-01</weightTrimRate>
    <maxDepth>1</maxDepth>
    <maxWeakCount>100</maxWeakCount></stageParams>
  <featureParams>
    <maxCatCount>256</maxCatCount>
    <featSize>1</featSize></featureParams>
  <stageNum>15</stageNum>
  <stages>
    <!-- stage 0 -->
    <_>
      <maxWeakCount>8</maxWeakCount>
      <stageThreshold>-4.1542389988899231e-01</stageThreshold>
      <weakClassifiers>
        <_>
          <internalNodes>
            0 -1 15 45698345 552599269 -1073856762 729520124 804927317
            259866492 1171642131 1115283</internalNodes>
          <leafValues>
            -1.5492957830429077e-01 7.7514791488647461e-01</leafValues></_>
        <_>
          <internalNodes>
            0 -1 25 -1343605920 741322685 2144309154 2112318063
            -2034960079 -176982035 -2026807533 1771026327</internalNodes>
          <leafValues>
            -3.3951842784881592e-01 6.3423097133636475e-01</leafValues></_>
        <_>
          <internalNodes>
            0 -1 50 -1517777951 -2141175742 401 -972127469 -1072005039
            -1996455744 134291456 998553745</internalNodes>
          <leafValues>
            -4.8978543281555176e-01 5.1644861698150635e-01</leafValues></_>
        <_>
          <internalNodes>
            0 -1 16 214599546 -2081722663 -1363370003 1296362967
            -1216451601 1534393213 1827108693 -2140522860</internalNodes>
          <leafValues>
            -4.5771884918212891e-01 5.6746870279312134e-01</leafValues></_>
        <_>
          <internalNodes>
            0 -1 37 -2146213411 -490602495 51448093 -1056701048 101013
            50333704 -2147385196 -860090156</internalNodes>
          <leafValues>
            -4.6175047755241394e-01 6.0589659214019775e-01</leafValues></_>
        <_>
          <internalNodes>
            0 -1 40 1113113130 17891520 16794882 352686088 163842
            -2013263734 -2147282773 135488153</internalNodes>
          <leafValues>
            -5.2333790063858032e-01 5.6017506122589111e-01</leafValues></_>
        <_>
          <internalNodes>
            0 -1 65 10170337 -1505792275 251592307 -2035750153
            -1376782559 -1375733780 1071562262 -1405123206</internalNodes>
          <leafValues>
            -4.8197665810585022e-01 6.2091577053070068e-01</leafValues></_>
        <_>
          <internalNodes>
            0 -1 76 -1950720397 687548703 -553714003 -67555460 206853884
            2145253238 -1761772228 -566118628</internalNodes>
          <leafValues>
            -4.1646754741668701e-01 6.8702358007431030e-01</leafValues></_></weakClassifiers></_>
    <!-- stage 1 -->
    <_>
      <maxWeakCount>7</maxWeakCount>
      <stageThreshold>-4.9717724323272705e-01</stageThreshold>
      <weakClassifiers>
        <_>
          <internalNodes>
            0 -1 2 622935182 766115308 -4284 1038958060 1038441967
            1577041908 259817276 6573060</internalNodes>
          <leafValues>
            -2.7340823411941528e-01 7.2132903337478638e-01</leafValues></_>
        <_>
          <internalNodes>
            0 -1 56 -1901345136 -1729802572 -843176182 1363027325
            -1647865432 34975662 -2093697540 -2008611654</internalNodes>
          <leafValues>
            -2.6983648538589478e-01 8.0211436748504639e-01</leafValues></_>
        <_>
          <internalNodes>
            0 -1 60 -1771928944 -231791052 1323708077 -1718011260
            330624650 38166208 -1635851298 -1333067434</internalNodes>
          <leafValues>
            -3.0272021889686584e-01 8.4039616584777832e-01</leafValues></_>
        <_>
          <internalNodes>
            0 -1 46 -1201540460 359972460 248458042 -208196930
            -1116348496 -1805484036 125165512 -904166980</internalNodes>
          <leafValues>
            -3.2039520144462585e-01 8.2205653190612793e-01</leafValues></_>
        <_>
          <internalNodes>
            0 -1 24 1806787898 -1377321348 1073733225 2147086248
            2088562559 1073741692 494927743 22350916</internalNodes>
          <leafValues>
            -4.9775779247283936e-01 5.7615208625793457e-01</leafValues></_>
        <_>
          <internalNodes>
            0 -1 53 -1150641238 -1838309714 -299159622 -1838153987
            -1083248956 -1025310876 -1635474280 -1823640367</internalNodes>
          <leafValues>
            -4.1565871238708496e-01 7.4290239810943604e-01</leafValues></_>
        <_>
          <internalNodes>
            0 -1 64 -1992960776 -543297732 1878945762 300171224
            -1915912198 1585301365 1333770168 611675991</internalNodes>
          <leafValues>
            -4.8408874869346619e-01 6.5826791524887085e-01</leafValues></_></weakClassifiers></_>
    <!-- stage 2 -->
    <_>
      <maxWeakCount>7</maxWeakCount>
      <stageThreshold>-8.7431579828262329e-01</stageThreshold>
      <weakClassifiers>
        <_>
          <internalNodes>
            0 -1 57 -826826734 545958106 721359456 812842612 -1207988344
            -1496908308 1936709008 -759508769</internalNodes>
          <leafValues>
            2.6378896087408066e-02 7.5223499536514282e-01</leafValues></_>
        <_>
          <internalNodes>
            0 -1 62 -345199952 -1686476117 1735323453 1397157474
            1056177326 259284861 -1000948316 -864252117</internalNodes>
          <leafValues>
            -2.5730848312377930e-01 6.8135869503021240e-01</leafValues></_>
        <_>
          <internalNodes>
            0 -1 59 -515470822 -1872097963 1476210549 1463135340
            123133879 -1937936412 266509722 -550779698</internalNodes>
          <leafValues>
            -2.7125921845436096e-01 7.6258003711700439e-01</leafValues></_>
        <_>
          <internalNodes>
            0 -1 73 -1069085870 -273908040 1055604725 1006475258
            -153200681 -1796293905 -1216387906 -1558212134</internalNodes>
          <leafValues>
            -3.3481636643409729e-01 7.1820437908172607e-01</leafValues></_>
        <_>
          <internalNodes>
            0 -1 68 251377274 -1124286482 1878851216 243171322
            -805968717 636764158 1853683186 -705366554</internalNodes>
          <leafValues>
            -4.5820578932762146e-01 5.4542869329452515e-01</leafValues></_>
        <_>
          <internalNodes>
            0 -1 75 -676329221 -656951626 -822675515 2066640125
            -1621841158 51674934 528220156 -911357494</internalNodes>
          <leafValues>
            -3.6378040909767151e-01 7.4110621213912964e-01</leafValues></_>
        <_>
          <internalNodes>
            0 -1 19 -387989342 -890515798 -1241563536 456191142
            -1083818085 -1803790211 230669808 -1921276935</internalNodes>
          <leafValues>
            -3.2021102309226990e-01 7.3723459243774414e-01</leafValues></_></weakClassifiers></_>
    <!-- stage 3 -->
    <_>
      <maxWeakCount>8</maxWeakCount>
      <stageThreshold>-5.2448314428329468e-01</stageThreshold>
      <weakClassifiers>
        <_>
          <internalNodes>
            0 -1 93 204220212 -1344344121 2130378622 785284846 572721649
            -1975517192 2113798128 628097296</internalNodes>
          <leafValues>
            -5.3846156597137451e-01 6.5517240762710571e-01</leafValues></_>
        <_>
          <internalNodes>
            0 -1 1 930540775 1005551284 -215 1542717230 1073381353
            -33558659 760634828 1292213284</internalNodes>
          <leafValues>
            -3.2337448000907898e-01 7.4267411231994629e-01</leafValues></_>
        <_>
          <internalNodes>
            0 -1 72 -1453076649 522434030 -25248155 1902655468
            -436403730 695564151 -276965431 1068606869</internalNodes>
          <leafValues>
            -2.9437154531478882e-01 7.7024829387664795e-01</leafValues></_>
        <_>
          <internalNodes>
            0 -1 30 4796933 67895570 6623282 -1465376623 706815777
            1816058066 472613961 1088704896</internalNodes>
          <leafValues>
            -6.5376782417297363e-01 4.3320113420486450e-01</leafValues></_>
        <_>
          <internalNodes>
            0 -1 71 -1786732121 -1610317501 1124126920 1645256792
            153651521 1082130817 1518936133 -692131200</internalNodes>
          <leafValues>
            -5.8723294734954834e-01 4.9049100279808044e-01</leafValues></_>
        <_>
          <internalNodes>
            0 -1 61 -1909223545 -612422420 -1501680025 902728871
            402026478 -1494794252 939411070 1031120616</internalNodes>
          <leafValues>
            -4.4949632883071899e-01 6.7059981822967529e-01</leafValues></_>
        <_>
          <internalNodes>
            0 -1 98 1887210035 778960817 -1619153248 2006974318
            -138577080 1959788222 -943882447 -313578144</internalNodes>
          <leafValues>
            -4.1839820146560669e-01 7.1074229478836060e-01</leafValues></_>
        <_>
          <internalNodes>
            0 -1 94 631879941 538280456 -1727969024 1206920704 545334298
            -410939903 142746385 747233041</internalNodes>
          <leafValues>
            -6.1770719289779663e-01 5.3003334999084473e-01</leafValues></_></weakClassifiers></_>
    <!-- stage 4 -->
    <_>
      <maxWeakCount>5</maxWeakCount>
      <stageThreshold>-4.2334148287773132e-01</stageThreshold>
      <weakClassifiers>
        <_>
          <internalNodes>
            0 -1 43 648293157 754745341 753908558 -1476608035 2113764951
            654245887 -1073742988 752883004</internalNodes>
          <leafValues>
            -3.9033457636833191e-01 7.5725024938583374e-01</leafValues></_>
        <_>
          <internalNodes>
            0 -1 4 548415913 251558847 1056927719 -9519364 -10649609
            -939556865 -852121 -1444129732</internalNodes>
          <leafValues>
            -4.4913345575332642e-01 7.1491050720214844e-01</leafValues></_>
        <_>
          <internalNodes>
            0 -1 22 692847911 631380322 -1341423565 142779456 -465484012
            -1181119477 734712244 616833065</internalNodes>
          <leafValues>
            -6.6922086477279663e-01 5.4359173774719238e-01</leafValues></_>
        <_>
          <internalNodes>
            0 -1 54 184920020 1115988169 -963917809 1870668194
            -1842674167 -536207322 -651031007 -1512566735</internalNodes>
          <leafValues>
            -5.9870797395706177e-01 6.3119190931320190e-01</leafValues></_>
        <_>
          <internalNodes>
            0 -1 6 676864377 67256783 -1929019342 1418004705 1477511475
            285983129 -358553628 -321106844</internalNodes>
          <leafValues>
            -6.2757343053817749e-01 6.4340478181838989e-01</leafValues></_></weakClassifiers></_>
    <!-- stage 5 -->
    <_>
      <maxWeakCount>7</maxWeakCount>
      <stageThreshold>-3.0314129590988159e-01</stageThreshold>
      <weakClassifiers>
        <_>
          <internalNodes>
            0 -1 27 217852260 83542014 -1328285698 -1943912448
            2143232657 -680527873 2147478081 339229844</internalNodes>
          <leafValues>
            -5.6020945310592651e-01 7.0069372653961182e-01</leafValues></_>
        <_>
          <internalNodes>
            0 -1 20 156506029 -2004362496 -2073749030 -528433148
            566431881 -1936320443 1175030839 -1460651072</internalNodes>
          <leafValues>
            -4.7896903753280640e-01 6.5387779474258423e-01</leafValues></_>
        <_>
          <internalNodes>
            0 -1 63 73471013 -2069805648 454122314 -1070071743 137401156
            -532471765 -2122280924 -175945276</internalNodes>
          <leafValues>
            -5.5001449584960938e-01 6.3789147138595581e-01</leafValues></_>
        <_>
          <internalNodes>
            0 -1 74 28315721 1200952583 46680337 -866123488 -2078784249
            1179781220 1115973141 916794401</internalNodes>
          <leafValues>
            -6.3505542278289795e-01 5.6382244825363159e-01</leafValues></_>
        <_>
          <internalNodes>
            0 -1 78 128715117 633092094 -67108867 1680556015 935263867
            -420151466 -13238299 -84137311</internalNodes>
          <leafValues>
            -5.1420116424560547e-01 7.2509789466857910e-01</leafValues></_>
        <_>
          <internalNodes>
            0 -1 48 158929741 15691772 -320913624 -923467795 -276861099
            218046431 2044067687 -2030258571</internalNodes>
          <leafValues>
            -5.5978059768676758e-01 6.8574374914169312e-01</leafValues></_>
        <_>
          <internalNodes>
            0 -1 77 720526037 1810757091 -536957124 -1570812228
            536772560 2012643197 -37951627 -938951312</internalNodes>
          <leafValues>
            -5.7593488693237305e-01 6.7489880323410034e-01</leafValues></_></weakClassifiers></_>
    <!-- stage 6 -->
    <_>
      <maxWeakCount>6</maxWeakCount>
      <stageThreshold>-8.7666243314743042e-01</stageThreshold>
      <weakClassifiers>
        <_>
          <internalNodes>
            0 -1 35 169880353 804093941 -557057 -1427308577 805256763
            -318902281 -1811974914 -1380172164</internalNodes>
          <leafValues>
            -2.7793696522712708e-01 8.1903642416000366e-01</leafValues></_>
        <_>
          <internalNodes>
            0 -1 58 120851053 775839737 -281194769 -1375850626
            -1111525505 -1 1073467293 -1453047880</internalNodes>
          <leafValues>
            -4.8529925942420959e-01 7.2659349441528320e-01</leafValues></_>
        <_>
          <internalNodes>
            0 -1 26 238038373 -1904459778 -1342195749 -554893321 -33281
            -673185795 -33710251 -1365230724</internalNodes>
          <leafValues>
            -5.8931773900985718e-01 6.8733578920364380e-01</leafValues></_>
        <_>
          <internalNodes>
            0 -1 41 537989982 77533969 -460140506 -1430126591
            -2111239947 562053121 -1071496367 -1177811436</internalNodes>
          <leafValues>
            -6.5067660808563232e-01 6.5315258502960205e-01</leafValues></_>
        <_>
          <internalNodes>
            0 -1 86 245368733 -1546801169 -1090626051 -285575368
            -151165034 -28385287 885402492 -1664084396</internalNodes>
          <leafValues>
            -5.6251037120819092e-01 7.7762091159820557e-01</leafValues></_>
        <_>
          <internalNodes>
            0 -1 89 98113853 1727643135 -404799638 -1082195969
            -1613874561 720993661 2137571188 -1650925852</internalNodes>
          <leafValues>
            -6.1978763341903687e-01 7.3583161830902100e-01</leafValues></_></weakClassifiers></_>
    <!-- stage 7 -->
    <_>
      <maxWeakCount>6</maxWeakCount>
      <stageThreshold>-6.2544709444046021e-01</stageThreshold>
      <weakClassifiers>
        <_>
          <internalNodes>
            0 -1 82 716183892 -2143116287 -2146713589 -2080210944
            -1071611752 -1063120655 -1065353080 2100224</internalNodes>
          <leafValues>
            -7.4436092376708984e-01 6.5510779619216919e-01</leafValues></_>
        <_>
          <internalNodes>
            0 -1 38 732368697 -1427145225 -17825818 -353468497
            2130083709 1476378477 1593730932 -474492420</internalNodes>
          <leafValues>
            -5.0786066055297852e-01 6.0223770141601562e-01</leafValues></_>
        <_>
          <internalNodes>
            0 -1 7 -1364382657 -1376845891 2063297390 -2001928323
            -295225517 -269320425 -318820540 -514004123</internalNodes>
          <leafValues>
            -4.5646139979362488e-01 7.1770155429840088e-01</leafValues></_>
        <_>
          <internalNodes>
            0 -1 9 111966013 1824189423 -67114561 -1976107267 1853324901
            1803491327 -730335931 -859822495</internalNodes>
          <leafValues>
            -4.9934357404708862e-01 6.5685331821441650e-01</leafValues></_>
        <_>
          <internalNodes>
            0 -1 95 775285537 167259991 -8525973 -1342324737 -1744863372
            -578969865 -25243034 -390532779</internalNodes>
          <leafValues>
            -4.7233486175537109e-01 7.6799875497817993e-01</leafValues></_>
        <_>
          <internalNodes>
            0 -1 67 -2095806155 1276137475 -2034171678 -335476736
            270126686 1208582154 -2105487232 -846888960</internalNodes>
          <leafValues>
            -5.7533466815948486e-01 6.5544563531875610e-01</leafValues></_></weakClassifiers></_>
    <!-- stage 8 -->
    <_>
      <maxWeakCount>6</maxWeakCount>
      <stageThreshold>-9.0348094701766968e-01</stageThreshold>
      <weakClassifiers>
        <_>
          <internalNodes>
            0 -1 0 258489253 268369919 1073741742 754872318 -1107820555
            2147483639 2147480916 -1378341388</internalNodes>
          <leafValues>
            -3.5785952210426331e-01 7.8468370437622070e-01</leafValues></_>
        <_>
          <internalNodes>
            0 -1 96 878455873 17401097 1628882947 -1660271973
            -1996339438 -1584529393 -1610446812 -1086576096</internalNodes>
          <leafValues>
            -5.9876704216003418e-01 6.5126454830169678e-01</leafValues></_>
        <_>
          <internalNodes>
            0 -1 33 724567861 -2326530 -276840711 -302186516 1073738564
            -268582913 -1627621611 -1074258564</internalNodes>
          <leafValues>
            -5.2925568819046021e-01 7.5028473138809204e-01</leafValues></_>
        <_>
          <internalNodes>
            0 -1 88 595401397 -1410449417 -1208025477 -1073840961
            -201629740 1878818767 -167968976 -18318220</internalNodes>
          <leafValues>
            -5.4159986972808838e-01 7.6146465539932251e-01</leafValues></_>
        <_>
          <internalNodes>
            0 -1 92 753540981 -1350959363 532643509 -1347485699
            2147449719 1073741662 2146858864 -140182640</internalNodes>
          <leafValues>
            -5.8975285291671753e-01 7.3279207944869995e-01</leafValues></_>
        <_>
          <internalNodes>
            0 -1 13 24649005 187567171 1086564355 -1387150717
            -1867857905 1084784801 -2126409406 -1531704944</internalNodes>
          <leafValues>
            -6.7882078886032104e-01 6.6924494504928589e-01</leafValues></_></weakClassifiers></_>
    <!-- stage 9 -->
    <_>
      <maxWeakCount>6</maxWeakCount>
      <stageThreshold>5.8695800602436066e-02</stageThreshold>
      <weakClassifiers>
        <_>
          <internalNodes>
            0 -1 80 24649328 -1364262915 -5259315 1862205302 -1073840267
            -168296451 -598155 -1632625072</internalNodes>
          <leafValues>
            -3.5433071851730347e-01 7.2938686609268188e-01</leafValues></_>
        <_>
          <internalNodes>
            0 -1 31 721172197 720163055 -134239390 -1368408841
            1073739575 1878458239 -22730 -995807380</internalNodes>
          <leafValues>
            -5.3390109539031982e-01 6.2012702226638794e-01</leafValues></_>
        <_>
          <internalNodes>
            0 -1 52 9636169 68161923 -1191181917 559202579 -1743746997
            696713228 -1818737886 -1553188152</internalNodes>
          <leafValues>
            -5.2711373567581177e-01 6.1153447628021240e-01</leafValues></_>
        <_>
          <internalNodes>
            0 -1 8 804219566 -387002501 -1342194002 1728052975
            -151027849 870809599 -536881337 -403359851</internalNodes>
          <leafValues>
            -5.4490369558334351e-01 6.1213433742523193e-01</leafValues></_>
        <_>
          <internalNodes>
            0 -1 49 697376045 562582091 1929450250 -1870098408
            -1444331503 -536150002 -333242267 1663057449</internalNodes>
          <leafValues>
            -6.1975121498107910e-01 5.6027346849441528e-01</leafValues></_>
        <_>
          <internalNodes>
            0 -1 44 -1467468434 -1979496171 -1803549754 -335273019
            -771092470 -2146948880 -660696796 595877044</internalNodes>
          <leafValues>
            -7.3769772052764893e-01 5.3433459997177124e-01</leafValues></_></weakClassifiers></_>
    <!-- stage 10 -->
    <_>
      <maxWeakCount>7</maxWeakCount>
      <stageThreshold>-4.1749230027198792e-01</stageThreshold>
      <weakClassifiers>
        <_>
          <internalNodes>
            0 -1 14 101988612 796688381 -1140850703 -1090617357 -16835
            2013053003 -142100547 553131660</internalNodes>
          <leafValues>
            -5.9788358211517334e-01 7.0524233579635620e-01</leafValues></_>
        <_>
          <internalNodes>
            0 -1 97 118492773 -16912393 -32789 -671416580 1608269687
            -1082662915 939294711 -1343214108</internalNodes>
          <leafValues>
            -5.1972860097885132e-01 6.7314797639846802e-01</leafValues></_>
        <_>
          <internalNodes>
            0 -1 79 658252101 -1342194691 -1073745929 -1140949121
            -302596138 -17301506 -55391 -386396731</internalNodes>
          <leafValues>
            -5.0277137756347656e-01 6.6616845130920410e-01</leafValues></_>
        <_>
          <internalNodes>
            0 -1 29 796421493 1053654782 -277086213 -302104595 -65665
            803209215 -53898 -728756340</internalNodes>
          <leafValues>
            -5.3859281539916992e-01 6.5621316432952881e-01</leafValues></_>
        <_>
          <internalNodes>
            0 -1 81 36701089 133185776 -1719619062 772327178 333613322
            -1278111346 -668446175 1636569248</internalNodes>
          <leafValues>
            -6.5551173686981201e-01 5.5870383977890015e-01</leafValues></_>
        <_>
          <internalNodes>
            0 -1 87 1182666517 1811799928 1056956263 -1880322308
            1006430754 -84566020 -69478796 -962847268</internalNodes>
          <leafValues>
            -5.8463680744171143e-01 6.7733597755432129e-01</leafValues></_>
        <_>
          <internalNodes>
            0 -1 21 716703593 1073706879 -873529350 671051757
            -1209040915 -679510017 -147615 -1380960847</internalNodes>
          <leafValues>
            -5.7498979568481445e-01 6.6614836454391479e-01</leafValues></_></weakClassifiers></_>
    <!-- stage 11 -->
    <_>
      <maxWeakCount>5</maxWeakCount>
      <stageThreshold>-3.6818310618400574e-01</stageThreshold>
      <weakClassifiers>
        <_>
          <internalNodes>
            0 -1 34 544222484 -1359151105 -268436481 1727856637
            -1074299027 1426063231 -570771664 -1461449888</internalNodes>
          <leafValues>
            -4.7186148166656494e-01 7.3168212175369263e-01</leafValues></_>
        <_>
          <internalNodes>
            0 -1 55 258621287 787480495 -1564508418 1723236064
            -2021822895 1557028862 1744500592 -983179</internalNodes>
          <leafValues>
            -5.0979351997375488e-01 6.6413402557373047e-01</leafValues></_>
        <_>
          <internalNodes>
            0 -1 10 96993853 -1893199591 -1718271604 -360390796
            218782285 818012293 -1970646880 -1511519708</internalNodes>
          <leafValues>
            -6.2915033102035522e-01 5.9278666973114014e-01</leafValues></_>
        <_>
          <internalNodes>
            0 -1 17 5770697 -2143223035 -1189662397 -443878252
            1142954026 883035520 -2147285243 -1203760848</internalNodes>
          <leafValues>
            -5.9638327360153198e-01 5.8761852979660034e-01</leafValues></_>
        <_>
          <internalNodes>
            0 -1 91 589303793 124678031 1610585892 -68747268 -169347212
            -1482688515 -134316172 -207209180</internalNodes>
          <leafValues>
            -5.3846567869186401e-01 6.6692870855331421e-01</leafValues></_></weakClassifiers></_>
    <!-- stage 12 -->
    <_>
      <maxWeakCount>6</maxWeakCount>
      <stageThreshold>-4.9099403619766235e-01</stageThreshold>
      <weakClassifiers>
        <_>
          <internalNodes>
            0 -1 12 784314149 785280875 1861222126 -286068998 -705265849
            2037890789 -16812752 653407076</internalNodes>
          <leafValues>
            -2.7472528815269470e-01 7.2815531492233276e-01</leafValues></_>
        <_>
          <internalNodes>
            0 -1 5 653801319 -1436222721 -805310687 -2033312018
            -135453068 -167837698 -1117258124 -1393285775</internalNodes>
          <leafValues>
            -4.4948732852935791e-01 6.2065100669860840e-01</leafValues></_>
        <_>
          <internalNodes>
            0 -1 85 46013917 557842175 939507695 -1083692675 -537040605
            1711273967 1744729943 -1919375492</internalNodes>
          <leafValues>
            -4.2838865518569946e-01 6.7182070016860962e-01</leafValues></_>
        <_>
          <internalNodes>
            0 -1 90 933003093 -1208520726 -321962784 -1501582600
            -1350631487 1467465685 -8569551 -812359947</internalNodes>
          <leafValues>
            -3.9344838261604309e-01 7.2912651300430298e-01</leafValues></_>
        <_>
          <internalNodes>
            0 -1 3 754921327 -1360089217 -285213001 -1435029505
            2009036669 -1442841225 1862270820 -1175007371</internalNodes>
          <leafValues>
            -5.4277306795120239e-01 6.1835187673568726e-01</leafValues></_>
        <_>
          <internalNodes>
            0 -1 51 2146848629 -1962967297 -75567760 -1126305804 -24779
            -184614923 -21004556 -1499976332</internalNodes>
          <leafValues>
            -4.7519025206565857e-01 6.8049401044845581e-01</leafValues></_></weakClassifiers></_>
    <!-- stage 13 -->
    <_>
      <maxWeakCount>7</maxWeakCount>
      <stageThreshold>-3.1953248381614685e-01</stageThreshold>
      <weakClassifiers>
        <_>
          <internalNodes>
            0 -1 45 729297381 217972735 -73 -1359069444 888436727
            -142820353 754843629 -1397735468</internalNodes>
          <leafValues>
            -2.0670391619205475e-01 8.0047506093978882e-01</leafValues></_>
        <_>
          <internalNodes>
            0 -1 32 682896751 1828667389 -1091600401 -189858308
            1995931505 -34119817 -33554982 -1263532660</internalNodes>
          <leafValues>
            -4.6244657039642334e-01 6.8539762496948242e-01</leafValues></_>
        <_>
          <internalNodes>
            0 -1 84 254551381 -1879199809 2122276350 1878585068
            -671345051 -327188482 -139329769 -1195632956</internalNodes>
          <leafValues>
            -5.3334152698516846e-01 6.6879969835281372e-01</leafValues></_>
        <_>
          <internalNodes>
            0 -1 69 167904061 -2110749891 841030308 -1373634220
            -1572728315 -1798600703 581280356 -1666170732</internalNodes>
          <leafValues>
            -5.9745955467224121e-01 6.2812769412994385e-01</leafValues></_>
        <_>
          <internalNodes>
            0 -1 42 8653197 890785859 -1592929879 -1842726130 -776042707
            1107927042 1099482784 -1601165136</internalNodes>
          <leafValues>
            -6.3844913244247437e-01 5.7799977064132690e-01</leafValues></_>
        <_>
          <internalNodes>
            0 -1 36 708595121 794722297 -352339324 -830687377 1207778293
            133037942 -536971276 -1671158291</internalNodes>
          <leafValues>
            -5.7208073139190674e-01 6.8074840307235718e-01</leafValues></_>
        <_>
          <internalNodes>
            0 -1 47 621939055 206651599 -1214937020 1183605172
            -2142961373 1955037194 -592969213 1456277504</internalNodes>
          <leafValues>
            -6.6621547937393188e-01 5.6757414340972900e-01</leafValues></_></weakClassifiers></_>
    <!-- stage 14 -->
    <_>
      <maxWeakCount>8</maxWeakCount>
      <stageThreshold>-1.3231195509433746e-01</stageThreshold>
      <weakClassifiers>
        <_>
          <internalNodes>
            0 -1 23 640688672 784236541 2145304422 -1294143490 804552532
            1962409879 -1073774667 -2068573104</internalNodes>
          <leafValues>
            -4.9189189076423645e-01 6.8078815937042236e-01</leafValues></_>
        <_>
          <internalNodes>
            0 -1 28 1052131097 1743667195 989824426 -1682998664
            2004319422 -1208090627 670918100 401897456</internalNodes>
          <leafValues>
            -5.1140969991683960e-01 5.7083213329315186e-01</leafValues></_>
        <_>
          <internalNodes>
            0 -1 39 160199068 -196406967 675840261 1121683536
            -1307866581 1346472320 537406219 1303382152</internalNodes>
          <leafValues>
            -5.9156370162963867e-01 5.3080362081527710e-01</leafValues></_>
        <_>
          <internalNodes>
            0 -1 18 642918793 51110939 -1031790590 311577 1367597185
            -2146828278 -1055726429 -471568191</internalNodes>
          <leafValues>
            -5.6437879800796509e-01 5.3289508819580078e-01</leafValues></_>
        <_>
          <internalNodes>
            0 -1 70 756024580 243922121 -2147480822 -1270202359
            1619567297 1401012480 773460448 -457160379</internalNodes>
          <leafValues>
            -6.9744360446929932e-01 4.6019724011421204e-01</leafValues></_>
        <_>
          <internalNodes>
            0 -1 66 71545651 -2057698284 -1660350462 -396201937
            -636813276 42336771 872448034 1946730561</internalNodes>
          <leafValues>
            -6.1582183837890625e-01 5.5872792005538940e-01</leafValues></_>
        <_>
          <internalNodes>
            0 -1 11 677859181 247283681 2130640748 -1360068738
            1744295911 -402817069 -269096988 -423045788</internalNodes>
          <leafValues>
            -5.2693307399749756e-01 6.6297739744186401e-01</leafValues></_>
        <_>
          <internalNodes>
            0 -1 83 176167928 541132561 159480005 1276444736 33558881
            -904396773 1128839745 -2092433251</internalNodes>
          <leafValues>
            -6.4021015167236328e-01 5.6524759531021118e-01</leafValues></_></weakClassifiers></_></stages>
  <features>
    <_>
      <rect>
        0 0 1 7</rect></_>
    <_>
      <rect>
        0 0 18 18</rect></_>
    <_>
      <rect>
        0 2 16 20</rect></_>
    <_>
      <rect>
        0 3 5 2</rect></_>
    <_>
      <rect>
        0 14 1 4</rect></_>
    <_>
      <rect>
        0 43 2 3</rect></_>
    <_>
      <rect>
        0 46 1 4</rect></_>
    <_>
      <rect>
        0 54 2 1</rect></_>
    <_>
      <rect>
        1 21 4 1</rect></_>
    <_>
      <rect>
        1 28 3 1</rect></_>
    <_>
      <rect>
        1 37 2 4</rect></_>
    <_>
      <rect>
        1 44 2 2</rect></_>
    <_>
      <rect>
        1 52 8 2</rect></_>
    <_>
      <rect>
        2 39 1 6</rect></_>
    <_>
      <rect>
        3 10 1 10</rect></_>
    <_>
      <rect>
        4 10 17 12</rect></_>
    <_>
      <rect>
        4 28 2 1</rect></_>
    <_>
      <rect>
        4 46 2 4</rect></_>
    <_>
      <rect>
        5 4 1 6</rect></_>
    <_>
      <rect>
        5 23 1 1</rect></_>
    <_>
      <rect>
        5 47 1 4</rect></_>
    <_>
      <rect>
        6 0 2 4</rect></_>
    <_>
      <rect>
        6 12 1 3</rect></_>
    <_>
      <rect>
        7 1 6 6</rect></_>
    <_>
      <rect>
        7 3 12 14</rect></_>
    <_>
      <rect>
        8 37 16 8</rect></_>
    <_>
      <rect>
        9 2 1 5</rect></_>
    <_>
      <rect>
        9 4 1 6</rect></_>
    <_>
      <rect>
        9 5 9 12</rect></_>
    <_>
      <rect>
        9 37 1 8</rect></_>
    <_>
      <rect>
        10 0 1 1</rect></_>
    <_>
      <rect>
        10 5 6 1</rect></_>
    <_>
      <rect>
        10 10 2 5</rect></_>
    <_>
      <rect>
        10 48 1 4</rect></_>
    <_>
      <rect>
        11 0 2 7</rect></_>
    <_>
      <rect>
        12 13 1 6</rect></_>
    <_>
      <rect>
        12 24 4 4</rect></_>
    <_>
      <rect>
        12 41 3 2</rect></_>
    <_>
      <rect>
        13 1 6 1</rect></_>
    <_>
      <rect>
        16 5 1 1</rect></_>
    <_>
      <rect>
        16 22 10 10</rect></_>
    <_>
      <rect>
        16 23 1 5</rect></_>
    <_>
      <rect>
        16 44 2 3</rect></_>
    <_>
      <rect>
        17 2 1 4</rect></_>
    <_>
      <rect>
        17 61 3 1</rect></_>
    <_>
      <rect>
        18 0 2 6</rect></_>
    <_>
      <rect>
        18 36 1 1</rect></_>
    <_>
      <rect>
        19 3 2 3</rect></_>
    <_>
      <rect>
        19 61 2 1</rect></_>
    <_>
      <rect>
        21 8 2 1</rect></_>
    <_>
      <rect>
        22 47 4 5</rect></_>
    <_>
      <rect>
        23 55 2 2</rect></_>
    <_>
      <rect>
        24 5 7 1</rect></_>
    <_>
      <rect>
        25 25 2 1</rect></_>
    <_>
      <rect>
        26 4 1 5</rect></_>
    <_>
      <rect>
        26 5 7 2</rect></_>
    <_>
      <rect>
        26 24 2 1</rect></_>
    <_>
      <rect>
        26 25 5 2</rect></_>
    <_>
      <rect>
        27 0 1 4</rect></_>
    <_>
      <rect>
        27 26 1 2</rect></_>
    <_>
      <rect>
        27 29 1 1</rect></_>
    <_>
      <rect>
        29 17 8 10</rect></_>
    <_>
      <rect>
        29 31 2 2</rect></_>
    <_>
      <rect>
        31 13 5 1</rect></_>
    <_>
      <rect>
        31 15 8 6</rect></_>
    <_>
      <rect>
        32 15 2 2</rect></_>
    <_>
      <rect>
        32 55 1 2</rect></_>
    <_>
      <rect>
        34 10 8 2</rect></_>
    <_>
      <rect>
        34 33 9 7</rect></_>
    <_>
      <rect>
        35 55 2 2</rect></_>
    <_>
      <rect>
        36 5 3 5</rect></_>
    <_>
      <rect>
        37 7 4 1</rect></_>
    <_>
      <rect>
        37 15 5 4</rect></_>
    <_>
      <rect>
        38 25 1 2</rect></_>
    <_>
      <rect>
        42 3 1 1</rect></_>
    <_>
      <rect>
        43 31 1 2</rect></_>
    <_>
      <rect>
        44 22 2 4</rect></_>
    <_>
      <rect>
        45 40 1 3</rect></_>
    <_>
      <rect>
        46 8 1 3</rect></_>
    <_>
      <rect>
        47 0 2 5</rect></_>
    <_>
      <rect>
        49 1 1 7</rect></_>
    <_>
      <rect>
        49 42 2 1</rect></_>
    <_>
      <rect>
        50 9 1 12</rect></_>
    <_>
      <rect>
        50 61 2 1</rect></_>
    <_>
      <rect>
        52 0 2 3</rect></_>
    <_>
      <rect>
        52 14 2 2</rect></_>
    <_>
      <rect>
        53 55 1 2</rect></_>
    <_>
      <rect>
        54 42 1 2</rect></_>
    <_>
      <rect>
        55 5 1 4</rect></_>
    <_>
      <rect>
        55 13 1 3</rect></_>
    <_>
      <rect>
        55 54 2 2</rect></_>
    <_>
      <rect>
        56 48 2 3</rect></_>
    <_>
      <rect>
        57 49 1 4</rect></_>
    <_>
      <rect>
        58 4 1 5</rect></_>
    <_>
      <rect>
        58 27 2 1</rect></_>
    <_>
      <rect>
        59 44 1 2</rect></_>
    <_>
      <rect>
        61 8 1 9</rect></_>
    <_>
      <rect>
        61 45 1 6</rect></_>
    <_>
      <rect>
        61 56 1 1</rect></_></features></trianglesclassifier>
</opencv_storage>
